id,id_right,common bank users
-68471405,-26270763,2352
-68471405,-31516466,2248
-68471405,-36338110,2066
-68471405,-36184135,1375
-68471405,-29559271,1391
-68471405,-32194285,1229
-68471405,-22798006,1452
-68471405,-28477986,1504
-68471405,-39009769,1376
-68471405,-43215063,1464
-68471405,-38379853,1286
-68471405,-46117626,1280
-68471405,-43879004,1319
-68471405,-48319873,1237
-68471405,-40498005,1274
-68471405,-59086790,1930
-68471405,-33769500,1170
-68471405,-27895931,1371
-68471405,-35486195,1190
-68471405,-26750264,1079
-68471405,-30559917,820
-68471405,-43772432,1072
-68471405,-37169648,1280
-68471405,-29246653,1256
-68471405,-24098496,780
-68471405,-38683579,998
-68471405,-22822305,1085
-68471405,-32439535,1030
-68471405,-31805219,982
-68471405,-30022666,1233
-68471405,-42541008,1061
-68471405,-40335272,970
-68471405,-47679753,902
-68471405,-34483558,714
-68471405,-25421850,928
-68471405,-29302425,886
-68471405,-26307864,880
-68471405,-36008740,985
-68471405,-42092461,986
-68471405,-34118551,984
-68471405,-28950133,1024
-68471405,-25117353,831
-68471405,-48946342,1039
-68471405,-37448911,1285
-68471405,-56106344,1168
-68471405,-58170807,1127
-68471405,-30953300,739
-68471405,-40020627,961
-68471405,-460389,1155
-68471405,-25882042,1294
-68471405,-29046529,1487
-68471405,-48618580,965
-68471405,-28556858,650
-68471405,-55662720,912
-68471405,-18464856,1013
-68471405,-23170931,823
-68471405,-36164349,1093
-68471405,-23378353,1043
-68471405,-37579890,1150
-68471405,-43688579,898
-68471405,-26419239,1110
-68471405,-43660281,1227
-68471405,-25346844,807
-68471405,-23433159,990
-68471405,-28673372,618
-68471405,-36941068,1038
-68471405,-33080201,726
-68471405,-39728801,868
-68471405,-47118092,891
-68471405,-40020304,692
-68471405,-31189947,976
-68471405,-32015300,993
-68471405,-31976785,900
-68471405,-45441631,1028
-68471405,-34168005,631
-68471405,-36959676,806
-68471405,-28627911,855
-68471405,-40567146,968
-68471405,-48868052,809
-68471405,-12382740,956
-68471405,-28890647,898
-68471405,-42307767,689
-68471405,-119756085,1373
-68471405,-26970810,673
-68471405,-45064245,762
-68471405,-29690457,658
-68471405,-34451036,868
-68471405,-34137285,737
-68471405,-41807730,941
-68471405,-57846937,980
-68471405,-45588871,790
-68471405,-35143550,635
-68471405,-15755094,841
-68471405,-25817269,583
-68471405,-49684148,998
-68471405,-27797026,632
-68471405,-25189523,716
-68471405,-27725748,744
-68471405,-32615394,555
-68471405,-23917344,299
-68471405,-39733006,612
-68471405,-58824313,228
-68471405,-28277850,162
-68471405,-46252034,216
-68471405,-24282202,96
-68471405,-45745333,175
-68471405,-33257036,161
-68471405,-48689387,182
-68471405,-34980638,118
-68471405,-38584026,222
-68471405,-46105176,378
-68471405,-24117813,198
-68471405,-57484669,159
-68471405,-44352567,210
-68471405,-35822250,467
-68471405,-36086936,155
-68471405,-54799401,502
-68471405,-27570276,169
-68471405,-37990567,517
-68471405,-67436432,450
-68471405,-35963611,276
-68471405,-43415607,214
-68471405,-39441344,293
-68471405,-34191936,106
-68471405,-34244008,179
-68471405,-46952291,259
-68471405,-29509030,143
-68471405,-31746,160
-68471405,-4097,179
-68471405,-35486626,233
-68471405,-34889014,722
-68471405,-34021344,239
-68471405,-61766028,195
-68471405,-52599708,197
-68471405,-55817470,193
-68471405,-50329795,101
-68471405,-35157161,265
-68471405,-55122354,709
-68471405,-25813425,234
-68471405,-41039491,153
-68471405,-26147450,162
-68471405,-136798187,279
-68471405,-40188395,201
-68471405,-51006825,255
-68471405,-52888254,219
-68471405,-65255601,242
-68471405,-146296329,320
-68471405,-41592200,193
-68471405,-46688098,398
-68471405,-109034294,194
-68471405,-53404312,428
-68471405,-31713884,240
-68471405,-33159467,786
-68471405,-29846359,230
-68471405,-42370413,259
-68471405,-36785025,256
-68471405,-32922940,404
-68471405,-43000845,288
-68471405,-27701671,197
-68471405,-42763971,146
-68471405,-26675756,451
-68471405,-40586683,481
-68471405,-48713061,233
-68471405,-150261522,187
-68471405,-54365271,254
-68471405,-40182105,565
-68471405,-38744784,285
-68471405,-17964514,271
-68471405,-18496184,395
-68471405,-16054118,374
-68471405,-56414092,149
-68471405,-33477779,383
-68471405,-35113021,850
-68471405,-42763042,617
-68471405,-116622031,182
-68471405,-144495454,196
-68471405,-30187757,229
-68471405,-36147615,532
-68471405,-133726577,311
-68471405,-27211409,171
-68471405,-138880351,307
-68471405,-22079806,586
-68471405,-67083068,815
-68471405,-49573982,142
-68471405,-25637804,4
-68471405,-114936390,107
-68471405,-52757335,138
-68471405,-38610066,151
-68471405,-53328350,100
-68471405,-34773251,66
-68471405,-26514504,71
-68471405,-138586391,137
-68471405,-28043011,64
-68471405,-16979732,39
-68471405,-46509177,74
-68471405,-140837657,101
-68471405,-24778001,63
-68471405,-4917302,83
-68471405,-49909030,63
-68471405,-47532222,98
-68471405,-159882,102
-68471405,-30698831,76
-68471405,-53895352,40
-68471405,-135646310,99
-68471405,-46491980,48
-68471405,-25209792,0
-68471405,-33740333,53
-68471405,-27042171,105
-68471405,-39934740,111
-68471405,-37492055,121
-68471405,-41195750,74
-68471405,-30770434,156
-68471405,-123758876,75
-68471405,-37255766,98
-68471405,-31067605,59
-68471405,-40150367,109
-68471405,-60777940,77
-68471405,-23402051,75
-68471405,-38213334,109
-68471405,-32589678,64
-68471405,-124929453,82
-68471405,-31904789,58
-68471405,-32882882,2
-68471405,-31824322,2
-68471405,-41821502,51
-68471405,-152624627,138
-68471405,-41781422,77
-68471405,-28854940,66
-68471405,-120964023,79
-68471405,-32879518,94
-68471405,-30230765,70
-68471405,-33458865,1
-68471405,-33740058,0
-68471405,-26815066,79
-68471405,-29234096,101
-68471405,-53275080,91
-68471405,-48695892,77
-68471405,-44899174,146
-68471405,-44185119,116
-68471405,-32642571,0
-68471405,-46381558,80
-68471405,-60203425,88
-68471405,-40094883,189
-68471405,-120783513,129
-68471405,-5858244,97
-68471405,-101517329,101
-68471405,-27842893,116
-68471405,-23745378,92
-68471405,-16304557,72
-68471405,-37341971,87
-68471405,-31676526,59
-68471405,-39545317,74
-68471405,-6311,127
-68471405,-52860645,109
-68471405,-57921189,71
-68471405,-17774937,74
-68471405,-51320110,131
-68471405,-448331,73
-68471405,-25343514,0
-68471405,-31349398,0
-68471405,-23829742,0
-68471405,-108669203,93
-68471405,-29773768,83
-68471405,-30583806,84
-68471405,-31147960,0
-68471405,-49006351,115
-68471405,-53824275,82
-68471405,-22749457,27
-68471405,-39098868,151
-68471405,-18580754,0
-68471405,-46776943,0
-68471405,-35033516,0
-68471405,-23120271,0
-68471405,-10867126,0
-68471405,-42348360,0
-68471405,-47468364,0
-68471405,-34006570,1
-68471405,-62679409,0
-68471405,-112879211,2
-68471405,-16446965,0
-68471405,-102155552,0
-68471405,-35063491,1
-68471405,-100183029,0
-68471405,-153096053,2
-68471405,-65479003,0
-68471405,-42087860,2
-68471405,-43644982,0
-68471405,-37051604,0
-68471405,-123705495,0
-68471405,-40616729,3
-68471405,-2140461,0
-68471405,-23969308,1
-68471405,-45396825,4
-68471405,-103931799,0
-68471405,-34791943,0
-68471405,-33973923,0
-68471405,-26805628,0
-68471405,-29472743,0
-68471405,-44796159,4
-68471405,-6212371,0
-68471405,-45413372,0
-68471405,-45513686,0
-68471405,-156535261,11
-68471405,-28143397,0
-68471405,-38260467,0
-68471405,-42150915,0
-68471405,-142067900,1
-68471405,-6643989,1
-68471405,-47170405,1
-68471405,-34369498,0
-68471405,-33385088,0
-68471405,-29590405,0
-68471405,-68412495,1
-68471405,-31819634,0
-68471405,-41340094,0
-68471405,-4783286,0
-68471405,-48955290,0
-68471405,-112276660,0
-68471405,-110539527,3
-68471405,-11579844,0
-68471405,-154797304,1
-68471405,-26248726,0
-68471405,-2438902,0
-68471405,-60363198,1
-68471405,-56590997,0
-68471405,-16735333,0
-68471405,-110533308,0
-68471405,-34897937,1
-68471405,-102250,1
-68471405,-57540008,15
-68471405,-107260981,0
-68471405,-53952519,0
-68471405,-127878789,0
-68471405,-52951537,1
-68471405,-141097585,0
-68471405,-34617076,0
-68471405,-32297295,0
-68471405,-26688603,0
-68471405,-51689224,0
-68471405,-49800196,1
-68471405,-62130530,0
-68471405,-135093563,0
-68471405,-40407835,0
-68471405,-138568406,0
-68471405,-49178405,0
-68471405,-120398194,1
-68471405,-109210538,0
-68471405,-103209370,0
-68471405,-65269575,1
-68471405,-55151917,0
-68471405,-107161609,1
-26270763,-22798006,1391
-26270763,-24098496,1507
-26270763,-22822305,1081
-26270763,-25421850,1272
-26270763,-25117353,1268
-26270763,-25882042,1546
-26270763,-18464856,1024
-26270763,-23170931,1068
-26270763,-23378353,1012
-26270763,-25346844,1035
-26270763,-23433159,786
-26270763,-12382740,605
-26270763,-119756085,931
-26270763,-15755094,943
-26270763,-25817269,1079
-26270763,-25189523,927
-26270763,-23917344,308
-26270763,-24282202,62
-26270763,-24117813,206
-26270763,-25813425,453
-26270763,-26147450,138
-26270763,-136798187,238
-26270763,-146296329,221
-26270763,-109034294,200
-26270763,-150261522,82
-26270763,-17964514,305
-26270763,-18496184,321
-26270763,-16054118,471
-26270763,-116622031,120
-26270763,-144495454,119
-26270763,-133726577,206
-26270763,-138880351,151
-26270763,-22079806,635
-26270763,-25637804,4
-26270763,-114936390,47
-26270763,-138586391,115
-26270763,-16979732,51
-26270763,-140837657,36
-26270763,-24778001,59
-26270763,-159882,184
-26270763,-135646310,78
-26270763,-25209792,0
-26270763,-123758876,54
-26270763,-23402051,109
-26270763,-124929453,88
-26270763,-152624627,126
-26270763,-120964023,48
-26270763,-120783513,83
-26270763,-101517329,74
-26270763,-23745378,113
-26270763,-16304557,106
-26270763,-17774937,61
-26270763,-25343514,2
-26270763,-23829742,2
-26270763,-108669203,90
-26270763,-22749457,33
-26270763,-18580754,0
-26270763,-23120271,1
-26270763,-10867126,0
-26270763,-112879211,3
-26270763,-16446965,1
-26270763,-102155552,0
-26270763,-100183029,0
-26270763,-153096053,2
-26270763,-123705495,0
-26270763,-2140461,0
-26270763,-23969308,1
-26270763,-103931799,0
-26270763,-156535261,7
-26270763,-142067900,0
-26270763,-112276660,0
-26270763,-110539527,3
-26270763,-11579844,0
-26270763,-154797304,2
-26270763,-26248726,0
-26270763,-2438902,0
-26270763,-16735333,0
-26270763,-110533308,0
-26270763,-102250,0
-26270763,-107260981,1
-26270763,-127878789,0
-26270763,-141097585,1
-26270763,-135093563,0
-26270763,-138568406,0
-26270763,-120398194,1
-26270763,-109210538,0
-26270763,-103209370,0
-26270763,-107161609,1
-31516466,-26270763,2669
-31516466,-29559271,1565
-31516466,-22798006,1364
-31516466,-28477986,1461
-31516466,-27895931,1179
-31516466,-26750264,1235
-31516466,-30559917,1177
-31516466,-29246653,1211
-31516466,-24098496,1213
-31516466,-22822305,1086
-31516466,-30022666,1268
-31516466,-25421850,1140
-31516466,-29302425,1205
-31516466,-26307864,1172
-31516466,-28950133,1221
-31516466,-25117353,1147
-31516466,-30953300,994
-31516466,-25882042,1141
-31516466,-29046529,1113
-31516466,-28556858,950
-31516466,-18464856,945
-31516466,-23170931,1037
-31516466,-23378353,1072
-31516466,-26419239,837
-31516466,-25346844,979
-31516466,-23433159,951
-31516466,-28673372,901
-31516466,-31189947,980
-31516466,-28627911,948
-31516466,-12382740,792
-31516466,-28890647,692
-31516466,-119756085,846
-31516466,-26970810,881
-31516466,-29690457,965
-31516466,-15755094,914
-31516466,-25817269,944
-31516466,-27797026,847
-31516466,-25189523,930
-31516466,-27725748,990
-31516466,-23917344,352
-31516466,-28277850,254
-31516466,-24282202,84
-31516466,-24117813,230
-31516466,-27570276,117
-31516466,-29509030,164
-31516466,-25813425,412
-31516466,-26147450,173
-31516466,-136798187,242
-31516466,-146296329,243
-31516466,-109034294,180
-31516466,-29846359,264
-31516466,-27701671,295
-31516466,-26675756,607
-31516466,-150261522,116
-31516466,-17964514,312
-31516466,-18496184,328
-31516466,-16054118,436
-31516466,-116622031,132
-31516466,-144495454,128
-31516466,-30187757,261
-31516466,-133726577,226
-31516466,-27211409,228
-31516466,-138880351,184
-31516466,-22079806,629
-31516466,-25637804,3
-31516466,-114936390,64
-31516466,-26514504,56
-31516466,-138586391,132
-31516466,-28043011,73
-31516466,-16979732,60
-31516466,-140837657,60
-31516466,-24778001,87
-31516466,-159882,147
-31516466,-30698831,105
-31516466,-135646310,75
-31516466,-25209792,2
-31516466,-27042171,111
-31516466,-30770434,96
-31516466,-123758876,64
-31516466,-31067605,80
-31516466,-23402051,121
-31516466,-124929453,80
-31516466,-152624627,130
-31516466,-28854940,153
-31516466,-120964023,51
-31516466,-30230765,128
-31516466,-26815066,88
-31516466,-29234096,119
-31516466,-120783513,98
-31516466,-101517329,77
-31516466,-27842893,116
-31516466,-23745378,144
-31516466,-16304557,79
-31516466,-17774937,52
-31516466,-25343514,3
-31516466,-31349398,2
-31516466,-23829742,1
-31516466,-108669203,86
-31516466,-29773768,105
-31516466,-30583806,93
-31516466,-31147960,2
-31516466,-22749457,28
-31516466,-18580754,0
-31516466,-23120271,0
-31516466,-10867126,0
-31516466,-112879211,3
-31516466,-16446965,0
-31516466,-102155552,1
-31516466,-100183029,0
-31516466,-153096053,2
-31516466,-123705495,0
-31516466,-2140461,0
-31516466,-23969308,1
-31516466,-103931799,0
-31516466,-26805628,0
-31516466,-29472743,0
-31516466,-156535261,8
-31516466,-28143397,0
-31516466,-142067900,0
-31516466,-29590405,0
-31516466,-112276660,0
-31516466,-110539527,3
-31516466,-11579844,0
-31516466,-154797304,0
-31516466,-26248726,0
-31516466,-2438902,0
-31516466,-16735333,0
-31516466,-110533308,0
-31516466,-102250,1
-31516466,-107260981,0
-31516466,-127878789,0
-31516466,-141097585,0
-31516466,-26688603,0
-31516466,-135093563,0
-31516466,-138568406,0
-31516466,-120398194,1
-31516466,-109210538,0
-31516466,-103209370,0
-31516466,-107161609,1
-36338110,-26270763,2839
-36338110,-31516466,2254
-36338110,-36184135,1509
-36338110,-29559271,1483
-36338110,-32194285,1430
-36338110,-22798006,1302
-36338110,-28477986,1156
-36338110,-33769500,1259
-36338110,-27895931,1139
-36338110,-35486195,1276
-36338110,-26750264,1134
-36338110,-30559917,1067
-36338110,-29246653,1045
-36338110,-24098496,1215
-36338110,-22822305,1102
-36338110,-32439535,1159
-36338110,-31805219,1088
-36338110,-30022666,1234
-36338110,-34483558,950
-36338110,-25421850,1074
-36338110,-29302425,1146
-36338110,-26307864,1049
-36338110,-36008740,1020
-36338110,-34118551,904
-36338110,-28950133,1152
-36338110,-25117353,1062
-36338110,-30953300,906
-36338110,-25882042,1359
-36338110,-29046529,1200
-36338110,-28556858,882
-36338110,-18464856,903
-36338110,-23170931,909
-36338110,-36164349,981
-36338110,-23378353,875
-36338110,-26419239,762
-36338110,-25346844,901
-36338110,-23433159,720
-36338110,-28673372,792
-36338110,-33080201,869
-36338110,-31189947,907
-36338110,-32015300,852
-36338110,-31976785,861
-36338110,-34168005,801
-36338110,-28627911,848
-36338110,-12382740,655
-36338110,-28890647,706
-36338110,-119756085,914
-36338110,-26970810,756
-36338110,-29690457,950
-36338110,-34451036,845
-36338110,-34137285,788
-36338110,-35143550,773
-36338110,-15755094,884
-36338110,-25817269,858
-36338110,-27797026,786
-36338110,-25189523,825
-36338110,-27725748,844
-36338110,-32615394,684
-36338110,-23917344,274
-36338110,-28277850,230
-36338110,-24282202,83
-36338110,-33257036,128
-36338110,-34980638,153
-36338110,-24117813,182
-36338110,-35822250,552
-36338110,-36086936,120
-36338110,-27570276,137
-36338110,-35963611,227
-36338110,-34191936,159
-36338110,-34244008,235
-36338110,-29509030,167
-36338110,-31746,146
-36338110,-35486626,425
-36338110,-34889014,683
-36338110,-34021344,399
-36338110,-35157161,334
-36338110,-25813425,399
-36338110,-26147450,150
-36338110,-136798187,216
-36338110,-146296329,226
-36338110,-109034294,190
-36338110,-31713884,233
-36338110,-33159467,560
-36338110,-29846359,217
-36338110,-32922940,435
-36338110,-27701671,291
-36338110,-26675756,569
-36338110,-150261522,112
-36338110,-17964514,281
-36338110,-18496184,380
-36338110,-16054118,444
-36338110,-33477779,461
-36338110,-35113021,869
-36338110,-116622031,119
-36338110,-144495454,112
-36338110,-30187757,242
-36338110,-36147615,809
-36338110,-133726577,224
-36338110,-27211409,249
-36338110,-138880351,159
-36338110,-22079806,673
-36338110,-25637804,3
-36338110,-114936390,54
-36338110,-34773251,122
-36338110,-26514504,79
-36338110,-138586391,115
-36338110,-28043011,60
-36338110,-16979732,58
-36338110,-140837657,43
-36338110,-24778001,62
-36338110,-159882,171
-36338110,-30698831,146
-36338110,-135646310,66
-36338110,-25209792,0
-36338110,-33740333,88
-36338110,-27042171,83
-36338110,-30770434,86
-36338110,-123758876,57
-36338110,-31067605,53
-36338110,-23402051,138
-36338110,-32589678,98
-36338110,-124929453,80
-36338110,-31904789,66
-36338110,-32882882,1
-36338110,-31824322,1
-36338110,-152624627,121
-36338110,-28854940,149
-36338110,-120964023,35
-36338110,-32879518,157
-36338110,-30230765,128
-36338110,-33458865,0
-36338110,-33740058,0
-36338110,-26815066,65
-36338110,-29234096,128
-36338110,-32642571,0
-36338110,-120783513,101
-36338110,-101517329,70
-36338110,-27842893,98
-36338110,-23745378,125
-36338110,-16304557,89
-36338110,-31676526,107
-36338110,-17774937,50
-36338110,-25343514,1
-36338110,-31349398,1
-36338110,-23829742,0
-36338110,-108669203,83
-36338110,-29773768,92
-36338110,-30583806,94
-36338110,-31147960,1
-36338110,-22749457,37
-36338110,-18580754,1
-36338110,-35033516,0
-36338110,-23120271,1
-36338110,-10867126,1
-36338110,-34006570,1
-36338110,-112879211,3
-36338110,-16446965,1
-36338110,-102155552,0
-36338110,-35063491,1
-36338110,-100183029,0
-36338110,-153096053,2
-36338110,-123705495,0
-36338110,-2140461,0
-36338110,-23969308,1
-36338110,-103931799,0
-36338110,-34791943,0
-36338110,-33973923,0
-36338110,-26805628,0
-36338110,-29472743,0
-36338110,-156535261,7
-36338110,-28143397,0
-36338110,-142067900,0
-36338110,-34369498,0
-36338110,-33385088,0
-36338110,-29590405,1
-36338110,-31819634,0
-36338110,-112276660,0
-36338110,-110539527,6
-36338110,-11579844,0
-36338110,-154797304,0
-36338110,-26248726,0
-36338110,-2438902,1
-36338110,-16735333,0
-36338110,-110533308,0
-36338110,-34897937,1
-36338110,-102250,1
-36338110,-107260981,1
-36338110,-127878789,0
-36338110,-141097585,0
-36338110,-34617076,0
-36338110,-32297295,0
-36338110,-26688603,0
-36338110,-135093563,0
-36338110,-138568406,0
-36338110,-120398194,1
-36338110,-109210538,0
-36338110,-103209370,0
-36338110,-107161609,0
-36184135,-26270763,1838
-36184135,-31516466,1492
-36184135,-29559271,1548
-36184135,-32194285,1740
-36184135,-22798006,1216
-36184135,-28477986,1197
-36184135,-33769500,1273
-36184135,-27895931,964
-36184135,-35486195,1461
-36184135,-26750264,1022
-36184135,-30559917,1422
-36184135,-29246653,895
-36184135,-24098496,1225
-36184135,-22822305,764
-36184135,-32439535,1544
-36184135,-31805219,1599
-36184135,-30022666,906
-36184135,-34483558,1294
-36184135,-25421850,1308
-36184135,-29302425,1100
-36184135,-26307864,1289
-36184135,-36008740,1222
-36184135,-34118551,1042
-36184135,-28950133,1084
-36184135,-25117353,1197
-36184135,-30953300,1297
-36184135,-25882042,767
-36184135,-29046529,728
-36184135,-28556858,1157
-36184135,-18464856,1112
-36184135,-23170931,1089
-36184135,-36164349,841
-36184135,-23378353,935
-36184135,-26419239,638
-36184135,-25346844,897
-36184135,-23433159,666
-36184135,-28673372,1174
-36184135,-33080201,1066
-36184135,-31189947,1009
-36184135,-32015300,809
-36184135,-31976785,668
-36184135,-34168005,1115
-36184135,-28627911,1021
-36184135,-12382740,478
-36184135,-28890647,683
-36184135,-119756085,605
-36184135,-26970810,1099
-36184135,-29690457,1020
-36184135,-34451036,1086
-36184135,-34137285,916
-36184135,-35143550,1082
-36184135,-15755094,676
-36184135,-25817269,1146
-36184135,-27797026,1023
-36184135,-25189523,931
-36184135,-27725748,900
-36184135,-32615394,779
-36184135,-23917344,322
-36184135,-28277850,233
-36184135,-24282202,68
-36184135,-33257036,124
-36184135,-34980638,248
-36184135,-24117813,184
-36184135,-35822250,750
-36184135,-36086936,127
-36184135,-27570276,127
-36184135,-35963611,201
-36184135,-34191936,197
-36184135,-34244008,317
-36184135,-29509030,212
-36184135,-31746,123
-36184135,-35486626,401
-36184135,-34889014,776
-36184135,-34021344,484
-36184135,-35157161,459
-36184135,-25813425,364
-36184135,-26147450,123
-36184135,-136798187,220
-36184135,-146296329,275
-36184135,-109034294,221
-36184135,-31713884,215
-36184135,-33159467,645
-36184135,-29846359,219
-36184135,-32922940,570
-36184135,-27701671,203
-36184135,-26675756,777
-36184135,-150261522,92
-36184135,-17964514,250
-36184135,-18496184,248
-36184135,-16054118,541
-36184135,-33477779,601
-36184135,-35113021,1043
-36184135,-116622031,115
-36184135,-144495454,105
-36184135,-30187757,268
-36184135,-36147615,805
-36184135,-133726577,217
-36184135,-27211409,207
-36184135,-138880351,148
-36184135,-22079806,389
-36184135,-25637804,5
-36184135,-114936390,48
-36184135,-34773251,174
-36184135,-26514504,51
-36184135,-138586391,115
-36184135,-28043011,36
-36184135,-16979732,73
-36184135,-140837657,54
-36184135,-24778001,67
-36184135,-159882,115
-36184135,-30698831,89
-36184135,-135646310,52
-36184135,-25209792,4
-36184135,-33740333,93
-36184135,-27042171,100
-36184135,-30770434,73
-36184135,-123758876,65
-36184135,-31067605,52
-36184135,-23402051,83
-36184135,-32589678,90
-36184135,-124929453,114
-36184135,-31904789,68
-36184135,-32882882,1
-36184135,-31824322,4
-36184135,-152624627,120
-36184135,-28854940,102
-36184135,-120964023,46
-36184135,-32879518,227
-36184135,-30230765,91
-36184135,-33458865,1
-36184135,-33740058,0
-36184135,-26815066,67
-36184135,-29234096,124
-36184135,-32642571,0
-36184135,-120783513,95
-36184135,-101517329,73
-36184135,-27842893,101
-36184135,-23745378,127
-36184135,-16304557,72
-36184135,-31676526,147
-36184135,-17774937,38
-36184135,-25343514,4
-36184135,-31349398,0
-36184135,-23829742,5
-36184135,-108669203,83
-36184135,-29773768,81
-36184135,-30583806,97
-36184135,-31147960,0
-36184135,-22749457,20
-36184135,-18580754,0
-36184135,-35033516,0
-36184135,-23120271,0
-36184135,-10867126,0
-36184135,-34006570,1
-36184135,-112879211,0
-36184135,-16446965,0
-36184135,-102155552,0
-36184135,-35063491,0
-36184135,-100183029,0
-36184135,-153096053,0
-36184135,-123705495,0
-36184135,-2140461,0
-36184135,-23969308,2
-36184135,-103931799,0
-36184135,-34791943,0
-36184135,-33973923,0
-36184135,-26805628,0
-36184135,-29472743,0
-36184135,-156535261,7
-36184135,-28143397,0
-36184135,-142067900,1
-36184135,-34369498,0
-36184135,-33385088,0
-36184135,-29590405,0
-36184135,-31819634,0
-36184135,-112276660,0
-36184135,-110539527,1
-36184135,-11579844,0
-36184135,-154797304,0
-36184135,-26248726,0
-36184135,-2438902,0
-36184135,-16735333,0
-36184135,-110533308,0
-36184135,-34897937,2
-36184135,-102250,0
-36184135,-107260981,0
-36184135,-127878789,0
-36184135,-141097585,0
-36184135,-34617076,0
-36184135,-32297295,0
-36184135,-26688603,0
-36184135,-135093563,0
-36184135,-138568406,0
-36184135,-120398194,0
-36184135,-109210538,0
-36184135,-103209370,0
-36184135,-107161609,1
-29559271,-26270763,1761
-29559271,-22798006,1437
-29559271,-28477986,1382
-29559271,-27895931,1023
-29559271,-26750264,1262
-29559271,-29246653,1093
-29559271,-24098496,1468
-29559271,-22822305,1050
-29559271,-25421850,1215
-29559271,-29302425,1374
-29559271,-26307864,1438
-29559271,-28950133,1216
-29559271,-25117353,1582
-29559271,-25882042,758
-29559271,-29046529,717
-29559271,-28556858,1183
-29559271,-18464856,726
-29559271,-23170931,1046
-29559271,-23378353,822
-29559271,-26419239,826
-29559271,-25346844,1178
-29559271,-23433159,838
-29559271,-28673372,1113
-29559271,-28627911,756
-29559271,-12382740,767
-29559271,-28890647,466
-29559271,-119756085,532
-29559271,-26970810,892
-29559271,-15755094,912
-29559271,-25817269,1188
-29559271,-27797026,1196
-29559271,-25189523,963
-29559271,-27725748,1045
-29559271,-23917344,231
-29559271,-28277850,221
-29559271,-24282202,92
-29559271,-24117813,211
-29559271,-27570276,167
-29559271,-29509030,276
-29559271,-25813425,431
-29559271,-26147450,187
-29559271,-136798187,162
-29559271,-146296329,238
-29559271,-109034294,125
-29559271,-27701671,203
-29559271,-26675756,673
-29559271,-150261522,99
-29559271,-17964514,275
-29559271,-18496184,322
-29559271,-16054118,417
-29559271,-116622031,150
-29559271,-144495454,152
-29559271,-133726577,308
-29559271,-27211409,225
-29559271,-138880351,185
-29559271,-22079806,574
-29559271,-25637804,10
-29559271,-114936390,71
-29559271,-26514504,65
-29559271,-138586391,96
-29559271,-28043011,74
-29559271,-16979732,80
-29559271,-140837657,73
-29559271,-24778001,81
-29559271,-159882,144
-29559271,-135646310,70
-29559271,-25209792,9
-29559271,-27042171,83
-29559271,-123758876,78
-29559271,-23402051,130
-29559271,-124929453,70
-29559271,-152624627,101
-29559271,-28854940,142
-29559271,-120964023,61
-29559271,-26815066,85
-29559271,-29234096,91
-29559271,-120783513,126
-29559271,-101517329,51
-29559271,-27842893,90
-29559271,-23745378,130
-29559271,-16304557,60
-29559271,-17774937,31
-29559271,-25343514,10
-29559271,-23829742,8
-29559271,-108669203,98
-29559271,-22749457,32
-29559271,-18580754,0
-29559271,-23120271,1
-29559271,-10867126,0
-29559271,-112879211,2
-29559271,-16446965,0
-29559271,-102155552,1
-29559271,-100183029,0
-29559271,-153096053,2
-29559271,-123705495,0
-29559271,-2140461,0
-29559271,-23969308,1
-29559271,-103931799,0
-29559271,-26805628,0
-29559271,-29472743,0
-29559271,-156535261,10
-29559271,-28143397,1
-29559271,-142067900,0
-29559271,-112276660,1
-29559271,-110539527,1
-29559271,-11579844,0
-29559271,-154797304,1
-29559271,-26248726,0
-29559271,-2438902,0
-29559271,-16735333,0
-29559271,-110533308,0
-29559271,-102250,0
-29559271,-107260981,0
-29559271,-127878789,0
-29559271,-141097585,0
-29559271,-26688603,0
-29559271,-135093563,0
-29559271,-138568406,0
-29559271,-120398194,1
-29559271,-109210538,0
-29559271,-103209370,1
-29559271,-107161609,1
-32194285,-26270763,1775
-32194285,-31516466,1530
-32194285,-29559271,1407
-32194285,-22798006,1288
-32194285,-28477986,1236
-32194285,-27895931,939
-32194285,-26750264,1114
-32194285,-30559917,1239
-32194285,-29246653,925
-32194285,-24098496,1366
-32194285,-22822305,728
-32194285,-31805219,1381
-32194285,-30022666,919
-32194285,-25421850,1184
-32194285,-29302425,1158
-32194285,-26307864,1124
-32194285,-28950133,1087
-32194285,-25117353,1118
-32194285,-30953300,1197
-32194285,-25882042,694
-32194285,-29046529,637
-32194285,-28556858,999
-32194285,-18464856,1156
-32194285,-23170931,1031
-32194285,-23378353,959
-32194285,-26419239,630
-32194285,-25346844,948
-32194285,-23433159,729
-32194285,-28673372,1066
-32194285,-31189947,956
-32194285,-32015300,844
-32194285,-31976785,608
-32194285,-28627911,1125
-32194285,-12382740,503
-32194285,-28890647,676
-32194285,-119756085,494
-32194285,-26970810,1105
-32194285,-29690457,929
-32194285,-15755094,676
-32194285,-25817269,973
-32194285,-27797026,878
-32194285,-25189523,953
-32194285,-27725748,1070
-32194285,-23917344,345
-32194285,-28277850,231
-32194285,-24282202,56
-32194285,-24117813,205
-32194285,-27570276,86
-32194285,-29509030,153
-32194285,-31746,124
-32194285,-25813425,352
-32194285,-26147450,146
-32194285,-136798187,199
-32194285,-146296329,219
-32194285,-109034294,192
-32194285,-31713884,269
-32194285,-29846359,210
-32194285,-27701671,188
-32194285,-26675756,662
-32194285,-150261522,73
-32194285,-17964514,269
-32194285,-18496184,253
-32194285,-16054118,511
-32194285,-116622031,103
-32194285,-144495454,80
-32194285,-30187757,331
-32194285,-133726577,165
-32194285,-27211409,217
-32194285,-138880351,123
-32194285,-22079806,405
-32194285,-25637804,10
-32194285,-114936390,35
-32194285,-26514504,64
-32194285,-138586391,92
-32194285,-28043011,42
-32194285,-16979732,68
-32194285,-140837657,33
-32194285,-24778001,83
-32194285,-159882,131
-32194285,-30698831,85
-32194285,-135646310,58
-32194285,-25209792,10
-32194285,-27042171,113
-32194285,-30770434,60
-32194285,-123758876,38
-32194285,-31067605,58
-32194285,-23402051,100
-32194285,-124929453,78
-32194285,-31904789,71
-32194285,-31824322,7
-32194285,-152624627,92
-32194285,-28854940,120
-32194285,-120964023,38
-32194285,-30230765,83
-32194285,-26815066,70
-32194285,-29234096,112
-32194285,-120783513,102
-32194285,-101517329,82
-32194285,-27842893,114
-32194285,-23745378,134
-32194285,-16304557,72
-32194285,-31676526,157
-32194285,-17774937,31
-32194285,-25343514,9
-32194285,-31349398,2
-32194285,-23829742,9
-32194285,-108669203,61
-32194285,-29773768,91
-32194285,-30583806,73
-32194285,-31147960,3
-32194285,-22749457,25
-32194285,-18580754,0
-32194285,-23120271,1
-32194285,-10867126,0
-32194285,-112879211,3
-32194285,-16446965,0
-32194285,-102155552,0
-32194285,-100183029,0
-32194285,-153096053,2
-32194285,-123705495,0
-32194285,-2140461,1
-32194285,-23969308,0
-32194285,-103931799,0
-32194285,-26805628,0
-32194285,-29472743,0
-32194285,-156535261,4
-32194285,-28143397,0
-32194285,-142067900,0
-32194285,-29590405,0
-32194285,-31819634,1
-32194285,-112276660,0
-32194285,-110539527,3
-32194285,-11579844,0
-32194285,-154797304,0
-32194285,-26248726,0
-32194285,-2438902,0
-32194285,-16735333,0
-32194285,-110533308,0
-32194285,-102250,0
-32194285,-107260981,0
-32194285,-127878789,0
-32194285,-141097585,0
-32194285,-26688603,0
-32194285,-135093563,0
-32194285,-138568406,0
-32194285,-120398194,0
-32194285,-109210538,0
-32194285,-103209370,0
-32194285,-107161609,0
-22798006,-18464856,797
-22798006,-12382740,856
-22798006,-119756085,590
-22798006,-15755094,727
-22798006,-136798187,173
-22798006,-146296329,204
-22798006,-109034294,148
-22798006,-150261522,120
-22798006,-17964514,318
-22798006,-18496184,399
-22798006,-16054118,419
-22798006,-116622031,104
-22798006,-144495454,116
-22798006,-133726577,218
-22798006,-138880351,206
-22798006,-22079806,555
-22798006,-114936390,63
-22798006,-138586391,80
-22798006,-16979732,61
-22798006,-140837657,48
-22798006,-159882,102
-22798006,-135646310,56
-22798006,-123758876,56
-22798006,-124929453,57
-22798006,-152624627,103
-22798006,-120964023,35
-22798006,-120783513,105
-22798006,-101517329,46
-22798006,-16304557,36
-22798006,-17774937,40
-22798006,-108669203,70
-22798006,-22749457,38
-22798006,-18580754,1
-22798006,-10867126,0
-22798006,-112879211,2
-22798006,-16446965,0
-22798006,-102155552,0
-22798006,-100183029,0
-22798006,-153096053,1
-22798006,-123705495,0
-22798006,-2140461,1
-22798006,-103931799,0
-22798006,-156535261,8
-22798006,-142067900,1
-22798006,-112276660,0
-22798006,-110539527,0
-22798006,-11579844,1
-22798006,-154797304,0
-22798006,-16735333,0
-22798006,-110533308,0
-22798006,-102250,0
-22798006,-107260981,0
-22798006,-127878789,0
-22798006,-141097585,0
-22798006,-135093563,0
-22798006,-138568406,0
-22798006,-120398194,0
-22798006,-109210538,0
-22798006,-103209370,0
-22798006,-107161609,1
-28477986,-26270763,1296
-28477986,-22798006,1385
-28477986,-27895931,1217
-28477986,-26750264,1116
-28477986,-24098496,860
-28477986,-22822305,992
-28477986,-25421850,1030
-28477986,-26307864,1049
-28477986,-25117353,908
-28477986,-25882042,648
-28477986,-18464856,870
-28477986,-23170931,1041
-28477986,-23378353,1148
-28477986,-26419239,1106
-28477986,-25346844,971
-28477986,-23433159,986
-28477986,-12382740,1002
-28477986,-119756085,619
-28477986,-26970810,776
-28477986,-15755094,761
-28477986,-25817269,738
-28477986,-27797026,780
-28477986,-25189523,815
-28477986,-27725748,891
-28477986,-23917344,371
-28477986,-28277850,202
-28477986,-24282202,116
-28477986,-24117813,275
-28477986,-27570276,113
-28477986,-25813425,323
-28477986,-26147450,261
-28477986,-136798187,212
-28477986,-146296329,250
-28477986,-109034294,180
-28477986,-27701671,142
-28477986,-26675756,550
-28477986,-150261522,154
-28477986,-17964514,335
-28477986,-18496184,368
-28477986,-16054118,412
-28477986,-116622031,152
-28477986,-144495454,155
-28477986,-133726577,241
-28477986,-27211409,137
-28477986,-138880351,259
-28477986,-22079806,601
-28477986,-25637804,26
-28477986,-114936390,83
-28477986,-26514504,83
-28477986,-138586391,98
-28477986,-28043011,62
-28477986,-16979732,73
-28477986,-140837657,76
-28477986,-24778001,114
-28477986,-159882,101
-28477986,-135646310,82
-28477986,-25209792,29
-28477986,-27042171,147
-28477986,-123758876,82
-28477986,-23402051,107
-28477986,-124929453,77
-28477986,-152624627,83
-28477986,-120964023,65
-28477986,-26815066,122
-28477986,-120783513,98
-28477986,-101517329,90
-28477986,-27842893,114
-28477986,-23745378,151
-28477986,-16304557,39
-28477986,-17774937,48
-28477986,-25343514,31
-28477986,-23829742,30
-28477986,-108669203,83
-28477986,-22749457,29
-28477986,-18580754,1
-28477986,-23120271,0
-28477986,-10867126,0
-28477986,-112879211,3
-28477986,-16446965,0
-28477986,-102155552,1
-28477986,-100183029,0
-28477986,-153096053,0
-28477986,-123705495,0
-28477986,-2140461,1
-28477986,-23969308,3
-28477986,-103931799,1
-28477986,-26805628,0
-28477986,-156535261,14
-28477986,-28143397,0
-28477986,-142067900,0
-28477986,-112276660,0
-28477986,-110539527,2
-28477986,-11579844,0
-28477986,-154797304,0
-28477986,-26248726,0
-28477986,-2438902,0
-28477986,-16735333,0
-28477986,-110533308,0
-28477986,-102250,0
-28477986,-107260981,0
-28477986,-127878789,0
-28477986,-141097585,0
-28477986,-26688603,0
-28477986,-135093563,0
-28477986,-138568406,0
-28477986,-120398194,0
-28477986,-109210538,0
-28477986,-103209370,0
-28477986,-107161609,0
-39009769,-26270763,1562
-39009769,-31516466,1360
-39009769,-36338110,1367
-39009769,-36184135,1635
-39009769,-29559271,1203
-39009769,-32194285,1724
-39009769,-22798006,1133
-39009769,-28477986,1162
-39009769,-38379853,1469
-39009769,-33769500,1105
-39009769,-27895931,990
-39009769,-35486195,1653
-39009769,-26750264,925
-39009769,-30559917,1075
-39009769,-37169648,1053
-39009769,-29246653,852
-39009769,-24098496,926
-39009769,-38683579,1129
-39009769,-22822305,707
-39009769,-32439535,1469
-39009769,-31805219,1464
-39009769,-30022666,786
-39009769,-34483558,982
-39009769,-25421850,1137
-39009769,-29302425,819
-39009769,-26307864,1043
-39009769,-36008740,1180
-39009769,-34118551,957
-39009769,-28950133,927
-39009769,-25117353,957
-39009769,-37448911,881
-39009769,-30953300,1105
-39009769,-25882042,662
-39009769,-29046529,727
-39009769,-28556858,877
-39009769,-18464856,1328
-39009769,-23170931,966
-39009769,-36164349,858
-39009769,-23378353,938
-39009769,-37579890,809
-39009769,-26419239,694
-39009769,-25346844,801
-39009769,-23433159,662
-39009769,-28673372,913
-39009769,-36941068,793
-39009769,-33080201,864
-39009769,-31189947,1028
-39009769,-32015300,789
-39009769,-31976785,588
-39009769,-34168005,814
-39009769,-36959676,875
-39009769,-28627911,1047
-39009769,-12382740,495
-39009769,-28890647,775
-39009769,-119756085,669
-39009769,-26970810,1001
-39009769,-29690457,857
-39009769,-34451036,1250
-39009769,-34137285,749
-39009769,-35143550,921
-39009769,-15755094,593
-39009769,-25817269,839
-39009769,-27797026,784
-39009769,-25189523,871
-39009769,-27725748,800
-39009769,-32615394,708
-39009769,-23917344,315
-39009769,-28277850,197
-39009769,-24282202,67
-39009769,-33257036,129
-39009769,-34980638,189
-39009769,-38584026,340
-39009769,-24117813,215
-39009769,-35822250,715
-39009769,-36086936,112
-39009769,-27570276,71
-39009769,-37990567,442
-39009769,-35963611,259
-39009769,-34191936,155
-39009769,-34244008,294
-39009769,-29509030,148
-39009769,-31746,140
-39009769,-35486626,294
-39009769,-34889014,883
-39009769,-34021344,390
-39009769,-35157161,427
-39009769,-25813425,289
-39009769,-26147450,139
-39009769,-136798187,213
-39009769,-146296329,247
-39009769,-109034294,252
-39009769,-31713884,266
-39009769,-33159467,620
-39009769,-29846359,207
-39009769,-36785025,344
-39009769,-32922940,602
-39009769,-27701671,158
-39009769,-26675756,694
-39009769,-150261522,92
-39009769,-38744784,417
-39009769,-17964514,266
-39009769,-18496184,266
-39009769,-16054118,515
-39009769,-33477779,628
-39009769,-35113021,1087
-39009769,-116622031,123
-39009769,-144495454,116
-39009769,-30187757,323
-39009769,-36147615,678
-39009769,-133726577,173
-39009769,-27211409,183
-39009769,-138880351,155
-39009769,-22079806,361
-39009769,-25637804,4
-39009769,-114936390,47
-39009769,-38610066,84
-39009769,-34773251,116
-39009769,-26514504,56
-39009769,-138586391,99
-39009769,-28043011,42
-39009769,-16979732,71
-39009769,-140837657,45
-39009769,-24778001,69
-39009769,-159882,103
-39009769,-30698831,93
-39009769,-135646310,65
-39009769,-25209792,5
-39009769,-33740333,101
-39009769,-27042171,117
-39009769,-37492055,120
-39009769,-30770434,71
-39009769,-123758876,44
-39009769,-37255766,119
-39009769,-31067605,55
-39009769,-23402051,75
-39009769,-38213334,86
-39009769,-32589678,82
-39009769,-124929453,119
-39009769,-31904789,61
-39009769,-32882882,1
-39009769,-31824322,7
-39009769,-152624627,101
-39009769,-28854940,89
-39009769,-120964023,38
-39009769,-32879518,163
-39009769,-30230765,85
-39009769,-33458865,0
-39009769,-33740058,0
-39009769,-26815066,69
-39009769,-29234096,111
-39009769,-32642571,1
-39009769,-120783513,90
-39009769,-101517329,103
-39009769,-27842893,101
-39009769,-23745378,128
-39009769,-16304557,72
-39009769,-37341971,107
-39009769,-31676526,130
-39009769,-17774937,46
-39009769,-25343514,2
-39009769,-31349398,1
-39009769,-23829742,4
-39009769,-108669203,69
-39009769,-29773768,104
-39009769,-30583806,82
-39009769,-31147960,1
-39009769,-22749457,22
-39009769,-18580754,1
-39009769,-35033516,0
-39009769,-23120271,0
-39009769,-10867126,1
-39009769,-34006570,1
-39009769,-112879211,2
-39009769,-16446965,1
-39009769,-102155552,0
-39009769,-35063491,1
-39009769,-100183029,0
-39009769,-153096053,0
-39009769,-37051604,0
-39009769,-123705495,0
-39009769,-2140461,1
-39009769,-23969308,0
-39009769,-103931799,0
-39009769,-34791943,0
-39009769,-33973923,0
-39009769,-26805628,0
-39009769,-29472743,0
-39009769,-156535261,4
-39009769,-28143397,0
-39009769,-38260467,1
-39009769,-142067900,1
-39009769,-34369498,0
-39009769,-33385088,0
-39009769,-29590405,0
-39009769,-31819634,0
-39009769,-112276660,0
-39009769,-110539527,3
-39009769,-11579844,0
-39009769,-154797304,0
-39009769,-26248726,0
-39009769,-2438902,0
-39009769,-16735333,0
-39009769,-110533308,0
-39009769,-34897937,1
-39009769,-102250,0
-39009769,-107260981,0
-39009769,-127878789,0
-39009769,-141097585,0
-39009769,-34617076,0
-39009769,-32297295,0
-39009769,-26688603,0
-39009769,-135093563,0
-39009769,-138568406,0
-39009769,-120398194,0
-39009769,-109210538,0
-39009769,-103209370,0
-39009769,-107161609,1
-43215063,-26270763,1245
-43215063,-31516466,1306
-43215063,-36338110,1225
-43215063,-36184135,1085
-43215063,-29559271,1173
-43215063,-32194285,1060
-43215063,-22798006,1467
-43215063,-28477986,1321
-43215063,-39009769,1082
-43215063,-38379853,961
-43215063,-40498005,1211
-43215063,-33769500,1300
-43215063,-27895931,1324
-43215063,-35486195,906
-43215063,-26750264,1215
-43215063,-30559917,869
-43215063,-37169648,804
-43215063,-29246653,1015
-43215063,-24098496,755
-43215063,-38683579,930
-43215063,-22822305,910
-43215063,-32439535,863
-43215063,-31805219,803
-43215063,-30022666,833
-43215063,-42541008,752
-43215063,-40335272,1074
-43215063,-34483558,808
-43215063,-25421850,868
-43215063,-29302425,763
-43215063,-26307864,855
-43215063,-36008740,918
-43215063,-42092461,783
-43215063,-34118551,910
-43215063,-28950133,808
-43215063,-25117353,794
-43215063,-37448911,769
-43215063,-30953300,745
-43215063,-40020627,817
-43215063,-25882042,596
-43215063,-29046529,722
-43215063,-28556858,749
-43215063,-18464856,807
-43215063,-23170931,853
-43215063,-36164349,942
-43215063,-23378353,835
-43215063,-37579890,661
-43215063,-26419239,1017
-43215063,-25346844,843
-43215063,-23433159,821
-43215063,-28673372,684
-43215063,-36941068,710
-43215063,-33080201,753
-43215063,-39728801,842
-43215063,-40020304,716
-43215063,-31189947,737
-43215063,-32015300,701
-43215063,-31976785,865
-43215063,-34168005,691
-43215063,-36959676,809
-43215063,-28627911,718
-43215063,-40567146,964
-43215063,-12382740,900
-43215063,-28890647,664
-43215063,-42307767,701
-43215063,-119756085,635
-43215063,-26970810,642
-43215063,-29690457,609
-43215063,-34451036,740
-43215063,-34137285,727
-43215063,-41807730,850
-43215063,-35143550,695
-43215063,-15755094,710
-43215063,-25817269,602
-43215063,-27797026,647
-43215063,-25189523,722
-43215063,-27725748,733
-43215063,-32615394,542
-43215063,-23917344,300
-43215063,-39733006,396
-43215063,-28277850,189
-43215063,-24282202,113
-43215063,-33257036,198
-43215063,-34980638,170
-43215063,-38584026,269
-43215063,-24117813,205
-43215063,-35822250,385
-43215063,-36086936,166
-43215063,-27570276,139
-43215063,-37990567,244
-43215063,-35963611,276
-43215063,-39441344,340
-43215063,-34191936,165
-43215063,-34244008,210
-43215063,-29509030,150
-43215063,-31746,213
-43215063,-4097,182
-43215063,-35486626,298
-43215063,-34889014,500
-43215063,-34021344,291
-43215063,-35157161,299
-43215063,-25813425,273
-43215063,-41039491,149
-43215063,-26147450,235
-43215063,-136798187,191
-43215063,-40188395,95
-43215063,-146296329,216
-43215063,-41592200,190
-43215063,-109034294,174
-43215063,-31713884,280
-43215063,-33159467,793
-43215063,-29846359,265
-43215063,-42370413,156
-43215063,-36785025,242
-43215063,-32922940,429
-43215063,-43000845,225
-43215063,-27701671,131
-43215063,-42763971,165
-43215063,-26675756,489
-43215063,-40586683,406
-43215063,-150261522,153
-43215063,-40182105,623
-43215063,-38744784,304
-43215063,-17964514,314
-43215063,-18496184,399
-43215063,-16054118,393
-43215063,-33477779,396
-43215063,-35113021,642
-43215063,-42763042,629
-43215063,-116622031,148
-43215063,-144495454,147
-43215063,-30187757,235
-43215063,-36147615,491
-43215063,-133726577,261
-43215063,-27211409,143
-43215063,-138880351,263
-43215063,-22079806,568
-43215063,-25637804,11
-43215063,-114936390,98
-43215063,-38610066,116
-43215063,-34773251,78
-43215063,-26514504,66
-43215063,-138586391,102
-43215063,-28043011,68
-43215063,-16979732,70
-43215063,-140837657,78
-43215063,-24778001,89
-43215063,-159882,112
-43215063,-30698831,84
-43215063,-135646310,65
-43215063,-25209792,16
-43215063,-33740333,100
-43215063,-27042171,113
-43215063,-39934740,123
-43215063,-37492055,110
-43215063,-41195750,70
-43215063,-30770434,106
-43215063,-123758876,60
-43215063,-37255766,107
-43215063,-31067605,83
-43215063,-40150367,118
-43215063,-23402051,111
-43215063,-38213334,129
-43215063,-32589678,83
-43215063,-124929453,68
-43215063,-31904789,88
-43215063,-32882882,4
-43215063,-31824322,7
-43215063,-41821502,39
-43215063,-152624627,100
-43215063,-41781422,81
-43215063,-28854940,66
-43215063,-120964023,56
-43215063,-32879518,95
-43215063,-30230765,83
-43215063,-33458865,10
-43215063,-33740058,4
-43215063,-26815066,94
-43215063,-29234096,76
-43215063,-32642571,8
-43215063,-40094883,102
-43215063,-120783513,102
-43215063,-101517329,62
-43215063,-27842893,85
-43215063,-23745378,142
-43215063,-16304557,35
-43215063,-37341971,65
-43215063,-31676526,84
-43215063,-39545317,47
-43215063,-17774937,37
-43215063,-25343514,15
-43215063,-31349398,3
-43215063,-23829742,13
-43215063,-108669203,77
-43215063,-29773768,79
-43215063,-30583806,79
-43215063,-31147960,5
-43215063,-22749457,41
-43215063,-39098868,182
-43215063,-18580754,0
-43215063,-35033516,1
-43215063,-23120271,0
-43215063,-10867126,0
-43215063,-42348360,0
-43215063,-34006570,1
-43215063,-112879211,2
-43215063,-16446965,0
-43215063,-102155552,0
-43215063,-35063491,1
-43215063,-100183029,0
-43215063,-153096053,1
-43215063,-42087860,0
-43215063,-37051604,0
-43215063,-123705495,0
-43215063,-40616729,7
-43215063,-2140461,1
-43215063,-23969308,2
-43215063,-103931799,0
-43215063,-34791943,0
-43215063,-33973923,0
-43215063,-26805628,0
-43215063,-29472743,0
-43215063,-156535261,11
-43215063,-28143397,0
-43215063,-38260467,0
-43215063,-42150915,0
-43215063,-142067900,0
-43215063,-34369498,0
-43215063,-33385088,1
-43215063,-29590405,0
-43215063,-31819634,0
-43215063,-41340094,1
-43215063,-112276660,0
-43215063,-110539527,3
-43215063,-11579844,0
-43215063,-154797304,1
-43215063,-26248726,0
-43215063,-2438902,0
-43215063,-16735333,0
-43215063,-110533308,0
-43215063,-34897937,1
-43215063,-102250,0
-43215063,-107260981,0
-43215063,-127878789,0
-43215063,-141097585,0
-43215063,-34617076,0
-43215063,-32297295,0
-43215063,-26688603,0
-43215063,-135093563,0
-43215063,-40407835,1
-43215063,-138568406,0
-43215063,-120398194,0
-43215063,-109210538,0
-43215063,-103209370,0
-43215063,-107161609,0
-38379853,-26270763,1576
-38379853,-31516466,1317
-38379853,-36338110,1326
-38379853,-36184135,2076
-38379853,-29559271,1309
-38379853,-32194285,1452
-38379853,-22798006,1063
-38379853,-28477986,1063
-38379853,-33769500,1092
-38379853,-27895931,880
-38379853,-35486195,1260
-38379853,-26750264,853
-38379853,-30559917,1163
-38379853,-37169648,1095
-38379853,-29246653,733
-38379853,-24098496,939
-38379853,-22822305,695
-38379853,-32439535,1375
-38379853,-31805219,1419
-38379853,-30022666,749
-38379853,-34483558,1099
-38379853,-25421850,1074
-38379853,-29302425,879
-38379853,-26307864,1062
-38379853,-36008740,1050
-38379853,-34118551,884
-38379853,-28950133,880
-38379853,-25117353,1043
-38379853,-37448911,792
-38379853,-30953300,1172
-38379853,-25882042,715
-38379853,-29046529,671
-38379853,-28556858,961
-38379853,-18464856,1051
-38379853,-23170931,962
-38379853,-36164349,685
-38379853,-23378353,835
-38379853,-37579890,806
-38379853,-26419239,577
-38379853,-25346844,759
-38379853,-23433159,553
-38379853,-28673372,963
-38379853,-36941068,779
-38379853,-33080201,915
-38379853,-31189947,922
-38379853,-32015300,724
-38379853,-31976785,592
-38379853,-34168005,950
-38379853,-36959676,855
-38379853,-28627911,806
-38379853,-12382740,409
-38379853,-28890647,705
-38379853,-119756085,643
-38379853,-26970810,866
-38379853,-29690457,869
-38379853,-34451036,1029
-38379853,-34137285,805
-38379853,-35143550,935
-38379853,-15755094,581
-38379853,-25817269,901
-38379853,-27797026,919
-38379853,-25189523,748
-38379853,-27725748,759
-38379853,-32615394,691
-38379853,-23917344,262
-38379853,-28277850,206
-38379853,-24282202,61
-38379853,-33257036,111
-38379853,-34980638,205
-38379853,-24117813,152
-38379853,-35822250,688
-38379853,-36086936,119
-38379853,-27570276,139
-38379853,-37990567,405
-38379853,-35963611,190
-38379853,-34191936,172
-38379853,-34244008,299
-38379853,-29509030,186
-38379853,-31746,126
-38379853,-35486626,326
-38379853,-34889014,758
-38379853,-34021344,414
-38379853,-35157161,412
-38379853,-25813425,297
-38379853,-26147450,112
-38379853,-136798187,184
-38379853,-146296329,266
-38379853,-109034294,209
-38379853,-31713884,196
-38379853,-33159467,576
-38379853,-29846359,191
-38379853,-36785025,285
-38379853,-32922940,468
-38379853,-27701671,163
-38379853,-26675756,693
-38379853,-150261522,73
-38379853,-17964514,236
-38379853,-18496184,226
-38379853,-16054118,410
-38379853,-33477779,519
-38379853,-35113021,915
-38379853,-116622031,111
-38379853,-144495454,109
-38379853,-30187757,255
-38379853,-36147615,691
-38379853,-133726577,194
-38379853,-27211409,177
-38379853,-138880351,138
-38379853,-22079806,367
-38379853,-25637804,1
-38379853,-114936390,50
-38379853,-34773251,152
-38379853,-26514504,65
-38379853,-138586391,105
-38379853,-28043011,41
-38379853,-16979732,76
-38379853,-140837657,53
-38379853,-24778001,54
-38379853,-159882,115
-38379853,-30698831,90
-38379853,-135646310,68
-38379853,-25209792,3
-38379853,-33740333,88
-38379853,-27042171,79
-38379853,-37492055,119
-38379853,-30770434,77
-38379853,-123758876,54
-38379853,-37255766,99
-38379853,-31067605,43
-38379853,-23402051,59
-38379853,-38213334,59
-38379853,-32589678,79
-38379853,-124929453,132
-38379853,-31904789,57
-38379853,-32882882,0
-38379853,-31824322,3
-38379853,-152624627,95
-38379853,-28854940,90
-38379853,-120964023,42
-38379853,-32879518,187
-38379853,-30230765,76
-38379853,-33458865,2
-38379853,-33740058,1
-38379853,-26815066,68
-38379853,-29234096,116
-38379853,-32642571,1
-38379853,-120783513,102
-38379853,-101517329,78
-38379853,-27842893,84
-38379853,-23745378,112
-38379853,-16304557,62
-38379853,-37341971,85
-38379853,-31676526,129
-38379853,-17774937,42
-38379853,-25343514,3
-38379853,-31349398,0
-38379853,-23829742,3
-38379853,-108669203,69
-38379853,-29773768,63
-38379853,-30583806,93
-38379853,-31147960,1
-38379853,-22749457,22
-38379853,-18580754,1
-38379853,-35033516,0
-38379853,-23120271,0
-38379853,-10867126,0
-38379853,-34006570,0
-38379853,-112879211,1
-38379853,-16446965,1
-38379853,-102155552,0
-38379853,-35063491,1
-38379853,-100183029,0
-38379853,-153096053,0
-38379853,-37051604,0
-38379853,-123705495,0
-38379853,-2140461,0
-38379853,-23969308,0
-38379853,-103931799,0
-38379853,-34791943,0
-38379853,-33973923,0
-38379853,-26805628,0
-38379853,-29472743,0
-38379853,-156535261,6
-38379853,-28143397,1
-38379853,-38260467,0
-38379853,-142067900,0
-38379853,-34369498,0
-38379853,-33385088,0
-38379853,-29590405,0
-38379853,-31819634,0
-38379853,-112276660,1
-38379853,-110539527,1
-38379853,-11579844,0
-38379853,-154797304,0
-38379853,-26248726,0
-38379853,-2438902,0
-38379853,-16735333,0
-38379853,-110533308,0
-38379853,-34897937,2
-38379853,-102250,0
-38379853,-107260981,0
-38379853,-127878789,0
-38379853,-141097585,0
-38379853,-34617076,0
-38379853,-32297295,0
-38379853,-26688603,0
-38379853,-135093563,0
-38379853,-138568406,0
-38379853,-120398194,0
-38379853,-109210538,0
-38379853,-103209370,0
-38379853,-107161609,2
-46117626,-26270763,1491
-46117626,-31516466,1302
-46117626,-36338110,1260
-46117626,-36184135,1738
-46117626,-29559271,1131
-46117626,-32194285,1654
-46117626,-22798006,1062
-46117626,-28477986,1107
-46117626,-39009769,1809
-46117626,-43215063,992
-46117626,-38379853,1552
-46117626,-43879004,1647
-46117626,-40498005,1374
-46117626,-33769500,1068
-46117626,-27895931,910
-46117626,-35486195,1407
-46117626,-26750264,802
-46117626,-30559917,1136
-46117626,-43772432,1378
-46117626,-37169648,1083
-46117626,-29246653,751
-46117626,-24098496,839
-46117626,-38683579,1085
-46117626,-22822305,658
-46117626,-32439535,1237
-46117626,-31805219,1623
-46117626,-30022666,690
-46117626,-42541008,1213
-46117626,-40335272,1036
-46117626,-34483558,998
-46117626,-25421850,1262
-46117626,-29302425,740
-46117626,-26307864,1098
-46117626,-36008740,1332
-46117626,-42092461,1870
-46117626,-34118551,1005
-46117626,-28950133,870
-46117626,-25117353,952
-46117626,-37448911,850
-46117626,-30953300,1112
-46117626,-40020627,1636
-46117626,-460389,638
-46117626,-25882042,658
-46117626,-29046529,666
-46117626,-28556858,908
-46117626,-18464856,1404
-46117626,-23170931,1085
-46117626,-36164349,780
-46117626,-23378353,994
-46117626,-37579890,766
-46117626,-43688579,1177
-46117626,-26419239,673
-46117626,-43660281,773
-46117626,-25346844,715
-46117626,-23433159,617
-46117626,-28673372,1016
-46117626,-36941068,758
-46117626,-33080201,902
-46117626,-39728801,1077
-46117626,-40020304,1033
-46117626,-31189947,1102
-46117626,-32015300,783
-46117626,-31976785,472
-46117626,-45441631,672
-46117626,-34168005,835
-46117626,-36959676,952
-46117626,-28627911,979
-46117626,-40567146,613
-46117626,-12382740,407
-46117626,-28890647,855
-46117626,-42307767,892
-46117626,-119756085,686
-46117626,-26970810,1104
-46117626,-45064245,1086
-46117626,-29690457,883
-46117626,-34451036,1324
-46117626,-34137285,824
-46117626,-41807730,784
-46117626,-45588871,867
-46117626,-35143550,1034
-46117626,-15755094,531
-46117626,-25817269,854
-46117626,-27797026,834
-46117626,-25189523,888
-46117626,-27725748,799
-46117626,-32615394,746
-46117626,-23917344,306
-46117626,-39733006,863
-46117626,-28277850,198
-46117626,-24282202,78
-46117626,-45745333,69
-46117626,-33257036,129
-46117626,-34980638,206
-46117626,-38584026,349
-46117626,-46105176,288
-46117626,-24117813,191
-46117626,-44352567,286
-46117626,-35822250,718
-46117626,-36086936,110
-46117626,-27570276,65
-46117626,-37990567,444
-46117626,-35963611,253
-46117626,-43415607,276
-46117626,-39441344,444
-46117626,-34191936,140
-46117626,-34244008,317
-46117626,-29509030,136
-46117626,-31746,121
-46117626,-4097,95
-46117626,-35486626,283
-46117626,-34889014,856
-46117626,-34021344,399
-46117626,-35157161,534
-46117626,-25813425,263
-46117626,-41039491,285
-46117626,-26147450,117
-46117626,-136798187,245
-46117626,-40188395,150
-46117626,-146296329,287
-46117626,-41592200,133
-46117626,-109034294,283
-46117626,-31713884,252
-46117626,-33159467,648
-46117626,-29846359,196
-46117626,-42370413,183
-46117626,-36785025,310
-46117626,-32922940,592
-46117626,-43000845,427
-46117626,-27701671,133
-46117626,-42763971,211
-46117626,-26675756,805
-46117626,-40586683,755
-46117626,-150261522,103
-46117626,-40182105,849
-46117626,-38744784,416
-46117626,-17964514,238
-46117626,-18496184,231
-46117626,-16054118,529
-46117626,-33477779,582
-46117626,-35113021,1089
-46117626,-42763042,859
-46117626,-116622031,142
-46117626,-144495454,103
-46117626,-30187757,324
-46117626,-36147615,635
-46117626,-133726577,183
-46117626,-27211409,166
-46117626,-138880351,154
-46117626,-22079806,321
-46117626,-25637804,1
-46117626,-114936390,49
-46117626,-38610066,87
-46117626,-34773251,139
-46117626,-26514504,63
-46117626,-138586391,114
-46117626,-28043011,27
-46117626,-16979732,75
-46117626,-140837657,49
-46117626,-24778001,64
-46117626,-159882,113
-46117626,-30698831,75
-46117626,-135646310,57
-46117626,-25209792,2
-46117626,-33740333,109
-46117626,-27042171,116
-46117626,-39934740,118
-46117626,-37492055,113
-46117626,-41195750,89
-46117626,-30770434,71
-46117626,-123758876,52
-46117626,-37255766,105
-46117626,-31067605,54
-46117626,-40150367,60
-46117626,-23402051,63
-46117626,-38213334,60
-46117626,-32589678,78
-46117626,-124929453,130
-46117626,-31904789,46
-46117626,-32882882,1
-46117626,-31824322,2
-46117626,-41821502,32
-46117626,-152624627,93
-46117626,-41781422,40
-46117626,-28854940,82
-46117626,-120964023,42
-46117626,-32879518,151
-46117626,-30230765,83
-46117626,-33458865,2
-46117626,-33740058,0
-46117626,-26815066,73
-46117626,-29234096,121
-46117626,-44899174,113
-46117626,-44185119,89
-46117626,-32642571,1
-46117626,-40094883,105
-46117626,-120783513,84
-46117626,-101517329,104
-46117626,-27842893,102
-46117626,-23745378,113
-46117626,-16304557,68
-46117626,-37341971,109
-46117626,-31676526,158
-46117626,-39545317,71
-46117626,-17774937,46
-46117626,-448331,51
-46117626,-25343514,3
-46117626,-31349398,0
-46117626,-23829742,2
-46117626,-108669203,57
-46117626,-29773768,89
-46117626,-30583806,88
-46117626,-31147960,1
-46117626,-22749457,17
-46117626,-39098868,99
-46117626,-18580754,1
-46117626,-35033516,0
-46117626,-23120271,0
-46117626,-10867126,0
-46117626,-42348360,0
-46117626,-34006570,1
-46117626,-112879211,1
-46117626,-16446965,1
-46117626,-102155552,0
-46117626,-35063491,0
-46117626,-100183029,0
-46117626,-153096053,0
-46117626,-42087860,1
-46117626,-43644982,1
-46117626,-37051604,0
-46117626,-123705495,0
-46117626,-40616729,10
-46117626,-2140461,1
-46117626,-23969308,1
-46117626,-45396825,4
-46117626,-103931799,0
-46117626,-34791943,0
-46117626,-33973923,0
-46117626,-26805628,0
-46117626,-29472743,0
-46117626,-44796159,7
-46117626,-45413372,0
-46117626,-45513686,0
-46117626,-156535261,4
-46117626,-28143397,0
-46117626,-38260467,0
-46117626,-42150915,0
-46117626,-142067900,1
-46117626,-34369498,0
-46117626,-33385088,0
-46117626,-29590405,0
-46117626,-31819634,0
-46117626,-41340094,0
-46117626,-112276660,0
-46117626,-110539527,3
-46117626,-11579844,0
-46117626,-154797304,0
-46117626,-26248726,0
-46117626,-2438902,0
-46117626,-16735333,0
-46117626,-110533308,0
-46117626,-34897937,1
-46117626,-102250,0
-46117626,-107260981,0
-46117626,-127878789,0
-46117626,-141097585,0
-46117626,-34617076,0
-46117626,-32297295,0
-46117626,-26688603,0
-46117626,-135093563,0
-46117626,-40407835,0
-46117626,-138568406,0
-46117626,-120398194,0
-46117626,-109210538,0
-46117626,-103209370,0
-46117626,-107161609,1
-43879004,-26270763,1388
-43879004,-31516466,1320
-43879004,-36338110,1195
-43879004,-36184135,1521
-43879004,-29559271,1149
-43879004,-32194285,1680
-43879004,-22798006,1193
-43879004,-28477986,1241
-43879004,-39009769,1657
-43879004,-43215063,1115
-43879004,-38379853,1308
-43879004,-40498005,1676
-43879004,-33769500,1090
-43879004,-27895931,1014
-43879004,-35486195,1292
-43879004,-26750264,917
-43879004,-30559917,1056
-43879004,-43772432,1298
-43879004,-37169648,1028
-43879004,-29246653,902
-43879004,-24098496,851
-43879004,-38683579,1059
-43879004,-22822305,752
-43879004,-32439535,1179
-43879004,-31805219,1356
-43879004,-30022666,728
-43879004,-42541008,1133
-43879004,-40335272,936
-43879004,-34483558,1025
-43879004,-25421850,1172
-43879004,-29302425,801
-43879004,-26307864,1038
-43879004,-36008740,1183
-43879004,-42092461,1427
-43879004,-34118551,1005
-43879004,-28950133,905
-43879004,-25117353,914
-43879004,-37448911,813
-43879004,-30953300,1082
-43879004,-40020627,1379
-43879004,-25882042,578
-43879004,-29046529,654
-43879004,-28556858,866
-43879004,-18464856,1312
-43879004,-23170931,1051
-43879004,-36164349,917
-43879004,-23378353,1006
-43879004,-37579890,736
-43879004,-43688579,1366
-43879004,-26419239,755
-43879004,-43660281,712
-43879004,-25346844,782
-43879004,-23433159,703
-43879004,-28673372,963
-43879004,-36941068,747
-43879004,-33080201,915
-43879004,-39728801,1289
-43879004,-40020304,933
-43879004,-31189947,1021
-43879004,-32015300,798
-43879004,-31976785,537
-43879004,-34168005,799
-43879004,-36959676,867
-43879004,-28627911,1078
-43879004,-40567146,707
-43879004,-12382740,530
-43879004,-28890647,811
-43879004,-42307767,860
-43879004,-119756085,617
-43879004,-26970810,1069
-43879004,-29690457,780
-43879004,-34451036,1206
-43879004,-34137285,800
-43879004,-41807730,798
-43879004,-35143550,963
-43879004,-15755094,575
-43879004,-25817269,806
-43879004,-27797026,794
-43879004,-25189523,962
-43879004,-27725748,807
-43879004,-32615394,707
-43879004,-23917344,369
-43879004,-39733006,793
-43879004,-28277850,204
-43879004,-24282202,74
-43879004,-33257036,158
-43879004,-34980638,192
-43879004,-38584026,417
-43879004,-24117813,219
-43879004,-35822250,661
-43879004,-36086936,120
-43879004,-27570276,67
-43879004,-37990567,360
-43879004,-35963611,299
-43879004,-43415607,257
-43879004,-39441344,434
-43879004,-34191936,163
-43879004,-34244008,253
-43879004,-29509030,141
-43879004,-31746,146
-43879004,-4097,103
-43879004,-35486626,289
-43879004,-34889014,749
-43879004,-34021344,376
-43879004,-35157161,448
-43879004,-25813425,286
-43879004,-41039491,244
-43879004,-26147450,149
-43879004,-136798187,250
-43879004,-40188395,130
-43879004,-146296329,242
-43879004,-41592200,149
-43879004,-109034294,242
-43879004,-31713884,295
-43879004,-33159467,698
-43879004,-29846359,234
-43879004,-42370413,171
-43879004,-36785025,350
-43879004,-32922940,668
-43879004,-43000845,365
-43879004,-27701671,149
-43879004,-42763971,199
-43879004,-26675756,694
-43879004,-40586683,585
-43879004,-150261522,100
-43879004,-40182105,786
-43879004,-38744784,379
-43879004,-17964514,278
-43879004,-18496184,314
-43879004,-16054118,528
-43879004,-33477779,600
-43879004,-35113021,1055
-43879004,-42763042,764
-43879004,-116622031,128
-43879004,-144495454,104
-43879004,-30187757,335
-43879004,-36147615,610
-43879004,-133726577,170
-43879004,-27211409,168
-43879004,-138880351,156
-43879004,-22079806,391
-43879004,-25637804,8
-43879004,-114936390,42
-43879004,-38610066,78
-43879004,-34773251,112
-43879004,-26514504,57
-43879004,-138586391,114
-43879004,-28043011,46
-43879004,-16979732,71
-43879004,-140837657,34
-43879004,-24778001,67
-43879004,-159882,106
-43879004,-30698831,75
-43879004,-135646310,53
-43879004,-25209792,7
-43879004,-33740333,110
-43879004,-27042171,138
-43879004,-39934740,110
-43879004,-37492055,104
-43879004,-41195750,79
-43879004,-30770434,81
-43879004,-123758876,41
-43879004,-37255766,123
-43879004,-31067605,63
-43879004,-40150367,74
-43879004,-23402051,77
-43879004,-38213334,74
-43879004,-32589678,88
-43879004,-124929453,97
-43879004,-31904789,61
-43879004,-32882882,4
-43879004,-31824322,7
-43879004,-41821502,36
-43879004,-152624627,109
-43879004,-41781422,49
-43879004,-28854940,83
-43879004,-120964023,40
-43879004,-32879518,140
-43879004,-30230765,85
-43879004,-33458865,6
-43879004,-33740058,1
-43879004,-26815066,86
-43879004,-29234096,113
-43879004,-32642571,2
-43879004,-40094883,92
-43879004,-120783513,81
-43879004,-101517329,100
-43879004,-27842893,105
-43879004,-23745378,134
-43879004,-16304557,73
-43879004,-37341971,96
-43879004,-31676526,144
-43879004,-39545317,63
-43879004,-17774937,41
-43879004,-25343514,8
-43879004,-31349398,1
-43879004,-23829742,7
-43879004,-108669203,65
-43879004,-29773768,115
-43879004,-30583806,86
-43879004,-31147960,3
-43879004,-22749457,23
-43879004,-39098868,111
-43879004,-18580754,1
-43879004,-35033516,0
-43879004,-23120271,0
-43879004,-10867126,1
-43879004,-42348360,0
-43879004,-34006570,1
-43879004,-112879211,1
-43879004,-16446965,0
-43879004,-102155552,0
-43879004,-35063491,1
-43879004,-100183029,0
-43879004,-153096053,1
-43879004,-42087860,1
-43879004,-43644982,0
-43879004,-37051604,0
-43879004,-123705495,0
-43879004,-40616729,10
-43879004,-2140461,1
-43879004,-23969308,1
-43879004,-103931799,0
-43879004,-34791943,0
-43879004,-33973923,0
-43879004,-26805628,0
-43879004,-29472743,0
-43879004,-156535261,3
-43879004,-28143397,1
-43879004,-38260467,0
-43879004,-42150915,0
-43879004,-142067900,1
-43879004,-34369498,0
-43879004,-33385088,0
-43879004,-29590405,0
-43879004,-31819634,0
-43879004,-41340094,1
-43879004,-112276660,0
-43879004,-110539527,2
-43879004,-11579844,1
-43879004,-154797304,2
-43879004,-26248726,0
-43879004,-2438902,0
-43879004,-16735333,0
-43879004,-110533308,0
-43879004,-34897937,2
-43879004,-102250,0
-43879004,-107260981,1
-43879004,-127878789,0
-43879004,-141097585,0
-43879004,-34617076,0
-43879004,-32297295,0
-43879004,-26688603,0
-43879004,-135093563,0
-43879004,-40407835,1
-43879004,-138568406,0
-43879004,-120398194,0
-43879004,-109210538,0
-43879004,-103209370,0
-43879004,-107161609,0
-48319873,-26270763,1334
-48319873,-31516466,1323
-48319873,-36338110,1205
-48319873,-36184135,1274
-48319873,-29559271,1244
-48319873,-32194285,1275
-48319873,-22798006,1423
-48319873,-28477986,1251
-48319873,-39009769,1220
-48319873,-43215063,1517
-48319873,-38379853,1118
-48319873,-46117626,1190
-48319873,-43879004,1344
-48319873,-40498005,1377
-48319873,-33769500,1398
-48319873,-27895931,1079
-48319873,-35486195,1018
-48319873,-26750264,1208
-48319873,-30559917,1015
-48319873,-43772432,1013
-48319873,-37169648,921
-48319873,-29246653,953
-48319873,-24098496,938
-48319873,-38683579,1020
-48319873,-22822305,829
-48319873,-32439535,956
-48319873,-31805219,988
-48319873,-30022666,817
-48319873,-42541008,895
-48319873,-40335272,1207
-48319873,-47679753,1320
-48319873,-34483558,895
-48319873,-25421850,989
-48319873,-29302425,865
-48319873,-26307864,980
-48319873,-36008740,1048
-48319873,-42092461,962
-48319873,-34118551,1000
-48319873,-28950133,882
-48319873,-25117353,903
-48319873,-37448911,707
-48319873,-30953300,865
-48319873,-40020627,934
-48319873,-460389,829
-48319873,-25882042,597
-48319873,-29046529,636
-48319873,-28556858,839
-48319873,-18464856,886
-48319873,-23170931,955
-48319873,-36164349,888
-48319873,-23378353,884
-48319873,-37579890,707
-48319873,-43688579,962
-48319873,-26419239,816
-48319873,-43660281,653
-48319873,-25346844,775
-48319873,-23433159,792
-48319873,-28673372,878
-48319873,-36941068,678
-48319873,-33080201,872
-48319873,-39728801,987
-48319873,-47118092,860
-48319873,-40020304,845
-48319873,-31189947,848
-48319873,-32015300,712
-48319873,-31976785,694
-48319873,-45441631,723
-48319873,-34168005,789
-48319873,-36959676,891
-48319873,-28627911,819
-48319873,-40567146,794
-48319873,-12382740,715
-48319873,-28890647,621
-48319873,-42307767,786
-48319873,-119756085,552
-48319873,-26970810,878
-48319873,-45064245,980
-48319873,-29690457,769
-48319873,-34451036,848
-48319873,-34137285,839
-48319873,-41807730,840
-48319873,-45588871,822
-48319873,-35143550,817
-48319873,-15755094,673
-48319873,-25817269,783
-48319873,-27797026,757
-48319873,-25189523,884
-48319873,-27725748,837
-48319873,-32615394,622
-48319873,-23917344,310
-48319873,-39733006,520
-48319873,-28277850,193
-48319873,-46252034,210
-48319873,-24282202,94
-48319873,-45745333,117
-48319873,-33257036,187
-48319873,-34980638,191
-48319873,-38584026,350
-48319873,-46105176,458
-48319873,-24117813,231
-48319873,-44352567,220
-48319873,-35822250,451
-48319873,-36086936,149
-48319873,-27570276,113
-48319873,-37990567,281
-48319873,-35963611,276
-48319873,-43415607,274
-48319873,-39441344,404
-48319873,-34191936,170
-48319873,-34244008,244
-48319873,-46952291,278
-48319873,-29509030,159
-48319873,-31746,189
-48319873,-4097,142
-48319873,-35486626,328
-48319873,-34889014,545
-48319873,-34021344,340
-48319873,-35157161,369
-48319873,-25813425,301
-48319873,-41039491,167
-48319873,-26147450,174
-48319873,-136798187,191
-48319873,-40188395,116
-48319873,-146296329,204
-48319873,-41592200,169
-48319873,-46688098,510
-48319873,-109034294,166
-48319873,-31713884,278
-48319873,-33159467,789
-48319873,-29846359,251
-48319873,-42370413,153
-48319873,-36785025,251
-48319873,-32922940,481
-48319873,-43000845,284
-48319873,-27701671,148
-48319873,-42763971,187
-48319873,-26675756,583
-48319873,-40586683,486
-48319873,-150261522,117
-48319873,-40182105,708
-48319873,-38744784,384
-48319873,-17964514,274
-48319873,-18496184,319
-48319873,-16054118,450
-48319873,-33477779,464
-48319873,-35113021,784
-48319873,-42763042,706
-48319873,-116622031,136
-48319873,-144495454,99
-48319873,-30187757,252
-48319873,-36147615,574
-48319873,-133726577,232
-48319873,-27211409,160
-48319873,-138880351,194
-48319873,-22079806,484
-48319873,-25637804,5
-48319873,-114936390,66
-48319873,-38610066,95
-48319873,-34773251,88
-48319873,-26514504,60
-48319873,-138586391,99
-48319873,-28043011,62
-48319873,-16979732,68
-48319873,-46509177,77
-48319873,-140837657,58
-48319873,-24778001,84
-48319873,-47532222,70
-48319873,-159882,115
-48319873,-30698831,86
-48319873,-135646310,61
-48319873,-46491980,72
-48319873,-25209792,6
-48319873,-33740333,98
-48319873,-27042171,117
-48319873,-39934740,120
-48319873,-37492055,127
-48319873,-41195750,62
-48319873,-30770434,87
-48319873,-123758876,62
-48319873,-37255766,106
-48319873,-31067605,76
-48319873,-40150367,109
-48319873,-23402051,103
-48319873,-38213334,100
-48319873,-32589678,82
-48319873,-124929453,61
-48319873,-31904789,83
-48319873,-32882882,3
-48319873,-31824322,6
-48319873,-41821502,46
-48319873,-152624627,97
-48319873,-41781422,65
-48319873,-28854940,91
-48319873,-120964023,51
-48319873,-32879518,102
-48319873,-30230765,84
-48319873,-33458865,3
-48319873,-33740058,1
-48319873,-26815066,92
-48319873,-29234096,84
-48319873,-44899174,98
-48319873,-44185119,106
-48319873,-32642571,2
-48319873,-46381558,108
-48319873,-40094883,86
-48319873,-120783513,94
-48319873,-101517329,65
-48319873,-27842893,92
-48319873,-23745378,141
-48319873,-16304557,51
-48319873,-37341971,90
-48319873,-31676526,122
-48319873,-39545317,51
-48319873,-17774937,30
-48319873,-448331,89
-48319873,-25343514,7
-48319873,-31349398,1
-48319873,-23829742,8
-48319873,-108669203,81
-48319873,-29773768,100
-48319873,-30583806,92
-48319873,-31147960,3
-48319873,-22749457,36
-48319873,-39098868,171
-48319873,-18580754,1
-48319873,-46776943,0
-48319873,-35033516,0
-48319873,-23120271,0
-48319873,-10867126,0
-48319873,-42348360,0
-48319873,-47468364,0
-48319873,-34006570,1
-48319873,-112879211,1
-48319873,-16446965,0
-48319873,-102155552,1
-48319873,-35063491,2
-48319873,-100183029,0
-48319873,-153096053,2
-48319873,-42087860,1
-48319873,-43644982,1
-48319873,-37051604,0
-48319873,-123705495,0
-48319873,-40616729,9
-48319873,-2140461,1
-48319873,-23969308,1
-48319873,-45396825,1
-48319873,-103931799,0
-48319873,-34791943,0
-48319873,-33973923,0
-48319873,-26805628,0
-48319873,-29472743,0
-48319873,-44796159,2
-48319873,-45413372,0
-48319873,-45513686,0
-48319873,-156535261,8
-48319873,-28143397,0
-48319873,-38260467,0
-48319873,-42150915,0
-48319873,-142067900,0
-48319873,-47170405,3
-48319873,-34369498,0
-48319873,-33385088,0
-48319873,-29590405,0
-48319873,-31819634,0
-48319873,-41340094,1
-48319873,-4783286,0
-48319873,-112276660,0
-48319873,-110539527,0
-48319873,-11579844,0
-48319873,-154797304,1
-48319873,-26248726,1
-48319873,-2438902,0
-48319873,-16735333,0
-48319873,-110533308,0
-48319873,-34897937,2
-48319873,-102250,1
-48319873,-107260981,0
-48319873,-127878789,0
-48319873,-141097585,0
-48319873,-34617076,0
-48319873,-32297295,0
-48319873,-26688603,0
-48319873,-135093563,1
-48319873,-40407835,1
-48319873,-138568406,0
-48319873,-120398194,0
-48319873,-109210538,0
-48319873,-103209370,0
-48319873,-107161609,0
-40498005,-26270763,1379
-40498005,-31516466,1367
-40498005,-36338110,1211
-40498005,-36184135,1430
-40498005,-29559271,1218
-40498005,-32194285,1426
-40498005,-22798006,1181
-40498005,-28477986,1300
-40498005,-39009769,1328
-40498005,-38379853,1222
-40498005,-33769500,1177
-40498005,-27895931,1128
-40498005,-35486195,1188
-40498005,-26750264,1001
-40498005,-30559917,1208
-40498005,-37169648,983
-40498005,-29246653,1029
-40498005,-24098496,957
-40498005,-38683579,1208
-40498005,-22822305,808
-40498005,-32439535,1075
-40498005,-31805219,1128
-40498005,-30022666,841
-40498005,-40335272,992
-40498005,-34483558,1074
-40498005,-25421850,1257
-40498005,-29302425,878
-40498005,-26307864,1149
-40498005,-36008740,1345
-40498005,-34118551,1068
-40498005,-28950133,1022
-40498005,-25117353,902
-40498005,-37448911,816
-40498005,-30953300,1039
-40498005,-40020627,1061
-40498005,-25882042,631
-40498005,-29046529,681
-40498005,-28556858,993
-40498005,-18464856,1009
-40498005,-23170931,1192
-40498005,-36164349,1110
-40498005,-23378353,1038
-40498005,-37579890,754
-40498005,-26419239,850
-40498005,-25346844,880
-40498005,-23433159,905
-40498005,-28673372,1062
-40498005,-36941068,725
-40498005,-33080201,1061
-40498005,-39728801,1274
-40498005,-40020304,1048
-40498005,-31189947,1061
-40498005,-32015300,781
-40498005,-31976785,641
-40498005,-34168005,913
-40498005,-36959676,954
-40498005,-28627911,1018
-40498005,-12382740,685
-40498005,-28890647,784
-40498005,-119756085,554
-40498005,-26970810,1081
-40498005,-29690457,831
-40498005,-34451036,1005
-40498005,-34137285,1010
-40498005,-35143550,1074
-40498005,-15755094,632
-40498005,-25817269,859
-40498005,-27797026,824
-40498005,-25189523,1096
-40498005,-27725748,888
-40498005,-32615394,709
-40498005,-23917344,453
-40498005,-39733006,673
-40498005,-28277850,207
-40498005,-24282202,98
-40498005,-33257036,180
-40498005,-34980638,236
-40498005,-38584026,414
-40498005,-24117813,258
-40498005,-35822250,532
-40498005,-36086936,147
-40498005,-27570276,82
-40498005,-37990567,318
-40498005,-35963611,359
-40498005,-39441344,451
-40498005,-34191936,198
-40498005,-34244008,324
-40498005,-29509030,159
-40498005,-31746,174
-40498005,-35486626,287
-40498005,-34889014,616
-40498005,-34021344,386
-40498005,-35157161,458
-40498005,-25813425,319
-40498005,-26147450,161
-40498005,-136798187,260
-40498005,-40188395,112
-40498005,-146296329,220
-40498005,-109034294,226
-40498005,-31713884,360
-40498005,-33159467,775
-40498005,-29846359,333
-40498005,-36785025,320
-40498005,-32922940,645
-40498005,-27701671,162
-40498005,-26675756,783
-40498005,-150261522,109
-40498005,-40182105,867
-40498005,-38744784,394
-40498005,-17964514,304
-40498005,-18496184,281
-40498005,-16054118,529
-40498005,-33477779,597
-40498005,-35113021,940
-40498005,-116622031,135
-40498005,-144495454,111
-40498005,-30187757,253
-40498005,-36147615,616
-40498005,-133726577,206
-40498005,-27211409,168
-40498005,-138880351,185
-40498005,-22079806,452
-40498005,-25637804,8
-40498005,-114936390,58
-40498005,-38610066,92
-40498005,-34773251,113
-40498005,-26514504,69
-40498005,-138586391,134
-40498005,-28043011,46
-40498005,-16979732,69
-40498005,-140837657,41
-40498005,-24778001,98
-40498005,-159882,105
-40498005,-30698831,84
-40498005,-135646310,50
-40498005,-25209792,8
-40498005,-33740333,125
-40498005,-27042171,176
-40498005,-39934740,125
-40498005,-37492055,98
-40498005,-30770434,73
-40498005,-123758876,55
-40498005,-37255766,124
-40498005,-31067605,84
-40498005,-40150367,84
-40498005,-23402051,100
-40498005,-38213334,99
-40498005,-32589678,91
-40498005,-124929453,84
-40498005,-31904789,77
-40498005,-32882882,2
-40498005,-31824322,7
-40498005,-152624627,111
-40498005,-28854940,84
-40498005,-120964023,44
-40498005,-32879518,130
-40498005,-30230765,95
-40498005,-33458865,2
-40498005,-33740058,1
-40498005,-26815066,88
-40498005,-29234096,121
-40498005,-32642571,2
-40498005,-40094883,84
-40498005,-120783513,81
-40498005,-101517329,105
-40498005,-27842893,102
-40498005,-23745378,151
-40498005,-16304557,57
-40498005,-37341971,99
-40498005,-31676526,150
-40498005,-39545317,70
-40498005,-17774937,44
-40498005,-25343514,5
-40498005,-31349398,2
-40498005,-23829742,7
-40498005,-108669203,76
-40498005,-29773768,124
-40498005,-30583806,97
-40498005,-31147960,2
-40498005,-22749457,34
-40498005,-39098868,134
-40498005,-18580754,1
-40498005,-35033516,0
-40498005,-23120271,0
-40498005,-10867126,0
-40498005,-34006570,1
-40498005,-112879211,3
-40498005,-16446965,1
-40498005,-102155552,0
-40498005,-35063491,0
-40498005,-100183029,0
-40498005,-153096053,1
-40498005,-37051604,1
-40498005,-123705495,0
-40498005,-2140461,1
-40498005,-23969308,2
-40498005,-103931799,0
-40498005,-34791943,0
-40498005,-33973923,0
-40498005,-26805628,0
-40498005,-29472743,0
-40498005,-156535261,5
-40498005,-28143397,1
-40498005,-38260467,0
-40498005,-142067900,1
-40498005,-34369498,0
-40498005,-33385088,0
-40498005,-29590405,0
-40498005,-31819634,0
-40498005,-112276660,0
-40498005,-110539527,1
-40498005,-11579844,1
-40498005,-154797304,1
-40498005,-26248726,0
-40498005,-2438902,0
-40498005,-16735333,0
-40498005,-110533308,0
-40498005,-34897937,2
-40498005,-102250,0
-40498005,-107260981,1
-40498005,-127878789,0
-40498005,-141097585,0
-40498005,-34617076,0
-40498005,-32297295,0
-40498005,-26688603,0
-40498005,-135093563,0
-40498005,-40407835,1
-40498005,-138568406,0
-40498005,-120398194,0
-40498005,-109210538,0
-40498005,-103209370,1
-40498005,-107161609,0
-59086790,-26270763,1354
-59086790,-31516466,1259
-59086790,-36338110,1277
-59086790,-36184135,899
-59086790,-29559271,796
-59086790,-32194285,794
-59086790,-22798006,861
-59086790,-28477986,859
-59086790,-39009769,933
-59086790,-43215063,898
-59086790,-38379853,842
-59086790,-46117626,932
-59086790,-43879004,861
-59086790,-48319873,765
-59086790,-40498005,850
-59086790,-33769500,740
-59086790,-27895931,861
-59086790,-35486195,806
-59086790,-26750264,628
-59086790,-30559917,550
-59086790,-43772432,725
-59086790,-37169648,825
-59086790,-29246653,774
-59086790,-24098496,478
-59086790,-38683579,659
-59086790,-22822305,629
-59086790,-32439535,722
-59086790,-31805219,706
-59086790,-30022666,666
-59086790,-42541008,666
-59086790,-40335272,635
-59086790,-47679753,606
-59086790,-34483558,470
-59086790,-25421850,645
-59086790,-29302425,526
-59086790,-26307864,589
-59086790,-36008740,687
-59086790,-42092461,663
-59086790,-34118551,615
-59086790,-28950133,589
-59086790,-25117353,539
-59086790,-48946342,744
-59086790,-37448911,828
-59086790,-56106344,691
-59086790,-58170807,709
-59086790,-30953300,512
-59086790,-40020627,692
-59086790,-460389,634
-59086790,-25882042,712
-59086790,-29046529,1002
-59086790,-48618580,648
-59086790,-28556858,434
-59086790,-55662720,635
-59086790,-18464856,736
-59086790,-23170931,567
-59086790,-36164349,693
-59086790,-23378353,706
-59086790,-37579890,709
-59086790,-43688579,615
-59086790,-26419239,702
-59086790,-43660281,778
-59086790,-25346844,507
-59086790,-23433159,643
-59086790,-28673372,454
-59086790,-36941068,606
-59086790,-33080201,488
-59086790,-39728801,603
-59086790,-47118092,594
-59086790,-40020304,481
-59086790,-31189947,639
-59086790,-32015300,566
-59086790,-31976785,519
-59086790,-45441631,704
-59086790,-34168005,425
-59086790,-36959676,519
-59086790,-28627911,593
-59086790,-40567146,594
-59086790,-48868052,523
-59086790,-12382740,533
-59086790,-28890647,611
-59086790,-42307767,477
-59086790,-119756085,1506
-59086790,-26970810,493
-59086790,-45064245,531
-59086790,-29690457,448
-59086790,-34451036,599
-59086790,-34137285,478
-59086790,-41807730,563
-59086790,-57846937,495
-59086790,-45588871,524
-59086790,-35143550,455
-59086790,-15755094,427
-59086790,-25817269,413
-59086790,-49684148,599
-59086790,-27797026,422
-59086790,-25189523,492
-59086790,-27725748,468
-59086790,-32615394,398
-59086790,-23917344,235
-59086790,-39733006,466
-59086790,-58824313,168
-59086790,-28277850,78
-59086790,-46252034,135
-59086790,-24282202,70
-59086790,-45745333,101
-59086790,-33257036,112
-59086790,-48689387,116
-59086790,-34980638,74
-59086790,-38584026,163
-59086790,-46105176,234
-59086790,-24117813,132
-59086790,-57484669,98
-59086790,-44352567,134
-59086790,-35822250,342
-59086790,-36086936,98
-59086790,-54799401,305
-59086790,-27570276,91
-59086790,-37990567,369
-59086790,-35963611,207
-59086790,-43415607,146
-59086790,-39441344,196
-59086790,-34191936,59
-59086790,-34244008,136
-59086790,-46952291,168
-59086790,-29509030,76
-59086790,-31746,84
-59086790,-4097,100
-59086790,-35486626,163
-59086790,-34889014,467
-59086790,-34021344,162
-59086790,-52599708,98
-59086790,-55817470,138
-59086790,-50329795,85
-59086790,-35157161,209
-59086790,-55122354,521
-59086790,-25813425,156
-59086790,-41039491,121
-59086790,-26147450,98
-59086790,-136798187,199
-59086790,-40188395,134
-59086790,-51006825,181
-59086790,-52888254,124
-59086790,-146296329,219
-59086790,-41592200,112
-59086790,-46688098,286
-59086790,-109034294,180
-59086790,-53404312,262
-59086790,-31713884,170
-59086790,-33159467,505
-59086790,-29846359,135
-59086790,-42370413,140
-59086790,-36785025,182
-59086790,-32922940,281
-59086790,-43000845,185
-59086790,-27701671,144
-59086790,-42763971,88
-59086790,-26675756,332
-59086790,-40586683,326
-59086790,-48713061,161
-59086790,-150261522,147
-59086790,-54365271,190
-59086790,-40182105,402
-59086790,-38744784,205
-59086790,-17964514,169
-59086790,-18496184,238
-59086790,-16054118,260
-59086790,-56414092,100
-59086790,-33477779,271
-59086790,-35113021,605
-59086790,-42763042,381
-59086790,-116622031,150
-59086790,-144495454,136
-59086790,-30187757,151
-59086790,-36147615,315
-59086790,-133726577,195
-59086790,-27211409,101
-59086790,-138880351,202
-59086790,-22079806,341
-59086790,-49573982,90
-59086790,-25637804,1
-59086790,-114936390,68
-59086790,-52757335,108
-59086790,-38610066,89
-59086790,-53328350,60
-59086790,-34773251,43
-59086790,-26514504,38
-59086790,-138586391,78
-59086790,-28043011,36
-59086790,-16979732,34
-59086790,-46509177,49
-59086790,-140837657,69
-59086790,-24778001,36
-59086790,-4917302,71
-59086790,-49909030,53
-59086790,-47532222,76
-59086790,-159882,77
-59086790,-30698831,49
-59086790,-53895352,28
-59086790,-135646310,55
-59086790,-46491980,33
-59086790,-25209792,0
-59086790,-33740333,43
-59086790,-27042171,78
-59086790,-39934740,73
-59086790,-37492055,75
-59086790,-41195750,39
-59086790,-30770434,93
-59086790,-123758876,54
-59086790,-37255766,77
-59086790,-31067605,40
-59086790,-40150367,69
-59086790,-23402051,30
-59086790,-38213334,52
-59086790,-32589678,37
-59086790,-124929453,75
-59086790,-31904789,30
-59086790,-32882882,0
-59086790,-31824322,0
-59086790,-41821502,35
-59086790,-152624627,84
-59086790,-41781422,43
-59086790,-28854940,54
-59086790,-120964023,53
-59086790,-32879518,64
-59086790,-30230765,50
-59086790,-33458865,0
-59086790,-33740058,0
-59086790,-26815066,49
-59086790,-29234096,68
-59086790,-53275080,58
-59086790,-48695892,44
-59086790,-44899174,116
-59086790,-44185119,80
-59086790,-32642571,0
-59086790,-46381558,45
-59086790,-40094883,92
-59086790,-120783513,75
-59086790,-5858244,69
-59086790,-101517329,75
-59086790,-27842893,69
-59086790,-23745378,54
-59086790,-16304557,49
-59086790,-37341971,51
-59086790,-31676526,39
-59086790,-39545317,55
-59086790,-52860645,76
-59086790,-57921189,49
-59086790,-17774937,47
-59086790,-51320110,91
-59086790,-448331,39
-59086790,-25343514,0
-59086790,-31349398,0
-59086790,-23829742,0
-59086790,-108669203,46
-59086790,-29773768,70
-59086790,-30583806,56
-59086790,-31147960,0
-59086790,-49006351,89
-59086790,-53824275,43
-59086790,-22749457,8
-59086790,-39098868,87
-59086790,-18580754,0
-59086790,-46776943,0
-59086790,-35033516,1
-59086790,-23120271,0
-59086790,-10867126,1
-59086790,-42348360,0
-59086790,-47468364,0
-59086790,-34006570,0
-59086790,-112879211,2
-59086790,-16446965,0
-59086790,-102155552,0
-59086790,-35063491,0
-59086790,-100183029,0
-59086790,-153096053,2
-59086790,-42087860,1
-59086790,-43644982,0
-59086790,-37051604,0
-59086790,-123705495,1
-59086790,-40616729,4
-59086790,-2140461,0
-59086790,-23969308,0
-59086790,-45396825,2
-59086790,-103931799,0
-59086790,-34791943,0
-59086790,-33973923,0
-59086790,-26805628,0
-59086790,-29472743,0
-59086790,-44796159,3
-59086790,-45413372,0
-59086790,-45513686,0
-59086790,-156535261,10
-59086790,-28143397,0
-59086790,-38260467,0
-59086790,-42150915,0
-59086790,-142067900,0
-59086790,-47170405,0
-59086790,-34369498,0
-59086790,-33385088,0
-59086790,-29590405,1
-59086790,-31819634,0
-59086790,-41340094,0
-59086790,-4783286,0
-59086790,-48955290,0
-59086790,-112276660,1
-59086790,-110539527,3
-59086790,-11579844,0
-59086790,-154797304,1
-59086790,-26248726,0
-59086790,-2438902,0
-59086790,-56590997,0
-59086790,-16735333,0
-59086790,-110533308,0
-59086790,-34897937,0
-59086790,-102250,0
-59086790,-57540008,11
-59086790,-107260981,0
-59086790,-53952519,0
-59086790,-127878789,0
-59086790,-52951537,1
-59086790,-141097585,0
-59086790,-34617076,0
-59086790,-32297295,0
-59086790,-26688603,0
-59086790,-51689224,0
-59086790,-49800196,1
-59086790,-135093563,0
-59086790,-40407835,0
-59086790,-138568406,0
-59086790,-49178405,0
-59086790,-120398194,0
-59086790,-109210538,0
-59086790,-103209370,0
-59086790,-55151917,1
-59086790,-107161609,1
-33769500,-26270763,1399
-33769500,-31516466,1315
-33769500,-29559271,1375
-33769500,-32194285,1226
-33769500,-22798006,1372
-33769500,-28477986,1178
-33769500,-27895931,1103
-33769500,-26750264,1263
-33769500,-30559917,1111
-33769500,-29246653,901
-33769500,-24098496,1006
-33769500,-22822305,802
-33769500,-32439535,978
-33769500,-31805219,925
-33769500,-30022666,843
-33769500,-25421850,1013
-33769500,-29302425,937
-33769500,-26307864,1054
-33769500,-28950133,874
-33769500,-25117353,1002
-33769500,-30953300,952
-33769500,-25882042,626
-33769500,-29046529,648
-33769500,-28556858,900
-33769500,-18464856,746
-33769500,-23170931,924
-33769500,-23378353,798
-33769500,-26419239,742
-33769500,-25346844,886
-33769500,-23433159,740
-33769500,-28673372,864
-33769500,-33080201,910
-33769500,-31189947,721
-33769500,-32015300,674
-33769500,-31976785,774
-33769500,-28627911,719
-33769500,-12382740,670
-33769500,-28890647,561
-33769500,-119756085,498
-33769500,-26970810,766
-33769500,-29690457,820
-33769500,-15755094,681
-33769500,-25817269,825
-33769500,-27797026,878
-33769500,-25189523,838
-33769500,-27725748,832
-33769500,-32615394,638
-33769500,-23917344,279
-33769500,-28277850,213
-33769500,-24282202,76
-33769500,-33257036,153
-33769500,-24117813,206
-33769500,-27570276,131
-33769500,-29509030,190
-33769500,-31746,160
-33769500,-25813425,321
-33769500,-26147450,176
-33769500,-136798187,162
-33769500,-146296329,212
-33769500,-109034294,147
-33769500,-31713884,227
-33769500,-33159467,692
-33769500,-29846359,252
-33769500,-32922940,418
-33769500,-27701671,175
-33769500,-26675756,586
-33769500,-150261522,100
-33769500,-17964514,282
-33769500,-18496184,308
-33769500,-16054118,394
-33769500,-33477779,429
-33769500,-116622031,115
-33769500,-144495454,100
-33769500,-30187757,236
-33769500,-133726577,220
-33769500,-27211409,168
-33769500,-138880351,181
-33769500,-22079806,495
-33769500,-25637804,6
-33769500,-114936390,65
-33769500,-26514504,59
-33769500,-138586391,95
-33769500,-28043011,55
-33769500,-16979732,74
-33769500,-140837657,52
-33769500,-24778001,89
-33769500,-159882,146
-33769500,-30698831,95
-33769500,-135646310,58
-33769500,-25209792,5
-33769500,-33740333,88
-33769500,-27042171,98
-33769500,-30770434,79
-33769500,-123758876,57
-33769500,-31067605,74
-33769500,-23402051,106
-33769500,-32589678,109
-33769500,-124929453,76
-33769500,-31904789,73
-33769500,-32882882,3
-33769500,-31824322,6
-33769500,-152624627,85
-33769500,-28854940,101
-33769500,-120964023,40
-33769500,-32879518,128
-33769500,-30230765,99
-33769500,-33458865,1
-33769500,-33740058,0
-33769500,-26815066,80
-33769500,-29234096,87
-33769500,-32642571,1
-33769500,-120783513,82
-33769500,-101517329,51
-33769500,-27842893,91
-33769500,-23745378,139
-33769500,-16304557,53
-33769500,-31676526,114
-33769500,-17774937,27
-33769500,-25343514,10
-33769500,-31349398,1
-33769500,-23829742,5
-33769500,-108669203,70
-33769500,-29773768,83
-33769500,-30583806,88
-33769500,-31147960,0
-33769500,-22749457,33
-33769500,-18580754,0
-33769500,-23120271,1
-33769500,-10867126,0
-33769500,-112879211,2
-33769500,-16446965,1
-33769500,-102155552,0
-33769500,-100183029,0
-33769500,-153096053,0
-33769500,-123705495,0
-33769500,-2140461,1
-33769500,-23969308,1
-33769500,-103931799,0
-33769500,-26805628,0
-33769500,-29472743,0
-33769500,-156535261,8
-33769500,-28143397,0
-33769500,-142067900,0
-33769500,-33385088,0
-33769500,-29590405,0
-33769500,-31819634,0
-33769500,-112276660,0
-33769500,-110539527,1
-33769500,-11579844,0
-33769500,-154797304,1
-33769500,-26248726,0
-33769500,-2438902,0
-33769500,-16735333,0
-33769500,-110533308,0
-33769500,-102250,0
-33769500,-107260981,0
-33769500,-127878789,0
-33769500,-141097585,1
-33769500,-32297295,0
-33769500,-26688603,0
-33769500,-135093563,0
-33769500,-138568406,0
-33769500,-120398194,0
-33769500,-109210538,0
-33769500,-103209370,1
-33769500,-107161609,3
-27895931,-26270763,1134
-27895931,-22798006,1300
-27895931,-26750264,1024
-27895931,-24098496,670
-27895931,-22822305,901
-27895931,-25421850,748
-27895931,-26307864,706
-27895931,-25117353,650
-27895931,-25882042,581
-27895931,-18464856,775
-27895931,-23170931,776
-27895931,-23378353,743
-27895931,-26419239,1088
-27895931,-25346844,691
-27895931,-23433159,755
-27895931,-12382740,829
-27895931,-119756085,589
-27895931,-26970810,611
-27895931,-15755094,691
-27895931,-25817269,518
-27895931,-27797026,541
-27895931,-25189523,629
-27895931,-27725748,623
-27895931,-23917344,300
-27895931,-24282202,110
-27895931,-24117813,202
-27895931,-27570276,110
-27895931,-25813425,270
-27895931,-26147450,223
-27895931,-136798187,202
-27895931,-146296329,203
-27895931,-109034294,192
-27895931,-27701671,117
-27895931,-26675756,427
-27895931,-150261522,183
-27895931,-17964514,374
-27895931,-18496184,403
-27895931,-16054118,383
-27895931,-116622031,138
-27895931,-144495454,124
-27895931,-133726577,242
-27895931,-27211409,142
-27895931,-138880351,238
-27895931,-22079806,607
-27895931,-25637804,9
-27895931,-114936390,88
-27895931,-26514504,86
-27895931,-138586391,100
-27895931,-16979732,66
-27895931,-140837657,72
-27895931,-24778001,83
-27895931,-159882,132
-27895931,-135646310,48
-27895931,-25209792,6
-27895931,-27042171,115
-27895931,-123758876,58
-27895931,-23402051,112
-27895931,-124929453,59
-27895931,-152624627,90
-27895931,-120964023,60
-27895931,-26815066,73
-27895931,-120783513,101
-27895931,-101517329,73
-27895931,-27842893,96
-27895931,-23745378,158
-27895931,-16304557,37
-27895931,-17774937,36
-27895931,-25343514,8
-27895931,-23829742,5
-27895931,-108669203,70
-27895931,-22749457,44
-27895931,-18580754,0
-27895931,-23120271,0
-27895931,-10867126,0
-27895931,-112879211,1
-27895931,-16446965,0
-27895931,-102155552,0
-27895931,-100183029,0
-27895931,-153096053,1
-27895931,-123705495,0
-27895931,-2140461,1
-27895931,-23969308,1
-27895931,-103931799,0
-27895931,-26805628,0
-27895931,-156535261,9
-27895931,-142067900,1
-27895931,-112276660,0
-27895931,-110539527,0
-27895931,-11579844,0
-27895931,-154797304,1
-27895931,-26248726,0
-27895931,-2438902,0
-27895931,-16735333,0
-27895931,-110533308,0
-27895931,-102250,0
-27895931,-107260981,0
-27895931,-127878789,0
-27895931,-141097585,0
-27895931,-26688603,0
-27895931,-135093563,0
-27895931,-138568406,0
-27895931,-120398194,0
-27895931,-109210538,0
-27895931,-103209370,1
-27895931,-107161609,1
-35486195,-26270763,1529
-35486195,-31516466,1318
-35486195,-29559271,1023
-35486195,-32194285,1492
-35486195,-22798006,922
-35486195,-28477986,958
-35486195,-33769500,981
-35486195,-27895931,846
-35486195,-26750264,813
-35486195,-30559917,982
-35486195,-29246653,728
-35486195,-24098496,899
-35486195,-22822305,557
-35486195,-32439535,1249
-35486195,-31805219,1172
-35486195,-30022666,747
-35486195,-34483558,811
-35486195,-25421850,977
-35486195,-29302425,785
-35486195,-26307864,914
-35486195,-34118551,772
-35486195,-28950133,829
-35486195,-25117353,825
-35486195,-30953300,896
-35486195,-25882042,589
-35486195,-29046529,639
-35486195,-28556858,787
-35486195,-18464856,1036
-35486195,-23170931,857
-35486195,-23378353,837
-35486195,-26419239,558
-35486195,-25346844,699
-35486195,-23433159,561
-35486195,-28673372,807
-35486195,-33080201,746
-35486195,-31189947,849
-35486195,-32015300,735
-35486195,-31976785,437
-35486195,-34168005,682
-35486195,-28627911,1243
-35486195,-12382740,407
-35486195,-28890647,640
-35486195,-119756085,539
-35486195,-26970810,857
-35486195,-29690457,742
-35486195,-34451036,931
-35486195,-34137285,693
-35486195,-35143550,826
-35486195,-15755094,510
-35486195,-25817269,768
-35486195,-27797026,669
-35486195,-25189523,803
-35486195,-27725748,730
-35486195,-32615394,581
-35486195,-23917344,337
-35486195,-28277850,183
-35486195,-24282202,57
-35486195,-33257036,111
-35486195,-34980638,162
-35486195,-24117813,177
-35486195,-27570276,49
-35486195,-34191936,129
-35486195,-34244008,234
-35486195,-29509030,106
-35486195,-31746,115
-35486195,-34889014,1073
-35486195,-34021344,367
-35486195,-35157161,335
-35486195,-25813425,261
-35486195,-26147450,110
-35486195,-136798187,213
-35486195,-146296329,236
-35486195,-109034294,212
-35486195,-31713884,247
-35486195,-33159467,523
-35486195,-29846359,186
-35486195,-32922940,574
-35486195,-27701671,153
-35486195,-26675756,577
-35486195,-150261522,73
-35486195,-17964514,229
-35486195,-18496184,218
-35486195,-16054118,543
-35486195,-33477779,671
-35486195,-35113021,1328
-35486195,-116622031,100
-35486195,-144495454,109
-35486195,-30187757,221
-35486195,-133726577,181
-35486195,-27211409,174
-35486195,-138880351,107
-35486195,-22079806,298
-35486195,-25637804,3
-35486195,-114936390,24
-35486195,-34773251,103
-35486195,-26514504,44
-35486195,-138586391,110
-35486195,-28043011,26
-35486195,-16979732,54
-35486195,-140837657,40
-35486195,-24778001,59
-35486195,-159882,95
-35486195,-30698831,66
-35486195,-135646310,53
-35486195,-25209792,1
-35486195,-33740333,99
-35486195,-27042171,115
-35486195,-30770434,50
-35486195,-123758876,44
-35486195,-31067605,54
-35486195,-23402051,59
-35486195,-32589678,80
-35486195,-124929453,100
-35486195,-31904789,61
-35486195,-32882882,1
-35486195,-31824322,3
-35486195,-152624627,97
-35486195,-28854940,98
-35486195,-120964023,35
-35486195,-32879518,135
-35486195,-30230765,75
-35486195,-33458865,2
-35486195,-33740058,0
-35486195,-26815066,57
-35486195,-29234096,104
-35486195,-32642571,0
-35486195,-120783513,71
-35486195,-101517329,93
-35486195,-27842893,103
-35486195,-23745378,98
-35486195,-16304557,66
-35486195,-31676526,130
-35486195,-17774937,36
-35486195,-25343514,2
-35486195,-31349398,0
-35486195,-23829742,2
-35486195,-108669203,64
-35486195,-29773768,94
-35486195,-30583806,93
-35486195,-31147960,0
-35486195,-22749457,12
-35486195,-18580754,0
-35486195,-35033516,0
-35486195,-23120271,0
-35486195,-10867126,1
-35486195,-34006570,1
-35486195,-112879211,1
-35486195,-16446965,0
-35486195,-102155552,0
-35486195,-35063491,1
-35486195,-100183029,0
-35486195,-153096053,0
-35486195,-123705495,1
-35486195,-2140461,1
-35486195,-23969308,1
-35486195,-103931799,0
-35486195,-34791943,0
-35486195,-33973923,0
-35486195,-26805628,0
-35486195,-29472743,0
-35486195,-156535261,5
-35486195,-28143397,0
-35486195,-142067900,0
-35486195,-34369498,0
-35486195,-33385088,0
-35486195,-29590405,0
-35486195,-31819634,0
-35486195,-112276660,0
-35486195,-110539527,2
-35486195,-11579844,0
-35486195,-154797304,0
-35486195,-26248726,0
-35486195,-2438902,0
-35486195,-16735333,0
-35486195,-110533308,0
-35486195,-34897937,2
-35486195,-102250,0
-35486195,-107260981,0
-35486195,-127878789,0
-35486195,-141097585,0
-35486195,-34617076,0
-35486195,-32297295,0
-35486195,-26688603,0
-35486195,-135093563,0
-35486195,-138568406,0
-35486195,-120398194,0
-35486195,-109210538,0
-35486195,-103209370,0
-35486195,-107161609,1
-26750264,-26270763,1298
-26750264,-22798006,1322
-26750264,-24098496,999
-26750264,-22822305,844
-26750264,-25421850,813
-26750264,-26307864,861
-26750264,-25117353,863
-26750264,-25882042,554
-26750264,-18464856,599
-26750264,-23170931,798
-26750264,-23378353,687
-26750264,-26419239,696
-26750264,-25346844,1073
-26750264,-23433159,710
-26750264,-12382740,680
-26750264,-119756085,416
-26750264,-15755094,699
-26750264,-25817269,669
-26750264,-25189523,734
-26750264,-23917344,247
-26750264,-24282202,78
-26750264,-24117813,178
-26750264,-25813425,347
-26750264,-26147450,171
-26750264,-136798187,129
-26750264,-146296329,154
-26750264,-109034294,116
-26750264,-26675756,432
-26750264,-150261522,92
-26750264,-17964514,265
-26750264,-18496184,309
-26750264,-16054118,355
-26750264,-116622031,93
-26750264,-144495454,87
-26750264,-133726577,189
-26750264,-138880351,166
-26750264,-22079806,483
-26750264,-25637804,10
-26750264,-114936390,59
-26750264,-26514504,59
-26750264,-138586391,75
-26750264,-16979732,60
-26750264,-140837657,48
-26750264,-24778001,90
-26750264,-159882,106
-26750264,-135646310,42
-26750264,-25209792,10
-26750264,-123758876,61
-26750264,-23402051,130
-26750264,-124929453,43
-26750264,-152624627,83
-26750264,-120964023,48
-26750264,-120783513,84
-26750264,-101517329,38
-26750264,-23745378,142
-26750264,-16304557,36
-26750264,-17774937,28
-26750264,-25343514,12
-26750264,-23829742,13
-26750264,-108669203,65
-26750264,-22749457,30
-26750264,-18580754,0
-26750264,-23120271,1
-26750264,-10867126,0
-26750264,-112879211,2
-26750264,-16446965,0
-26750264,-102155552,0
-26750264,-100183029,0
-26750264,-153096053,1
-26750264,-123705495,0
-26750264,-2140461,1
-26750264,-23969308,1
-26750264,-103931799,0
-26750264,-156535261,7
-26750264,-142067900,0
-26750264,-112276660,1
-26750264,-110539527,2
-26750264,-11579844,0
-26750264,-154797304,0
-26750264,-26248726,0
-26750264,-2438902,0
-26750264,-16735333,0
-26750264,-110533308,0
-26750264,-102250,0
-26750264,-107260981,0
-26750264,-127878789,0
-26750264,-141097585,0
-26750264,-26688603,0
-26750264,-135093563,1
-26750264,-138568406,0
-26750264,-120398194,1
-26750264,-109210538,0
-26750264,-103209370,1
-26750264,-107161609,1
-30559917,-26270763,1326
-30559917,-29559271,1573
-30559917,-22798006,1038
-30559917,-28477986,1027
-30559917,-27895931,732
-30559917,-26750264,935
-30559917,-29246653,749
-30559917,-24098496,1194
-30559917,-22822305,713
-30559917,-30022666,739
-30559917,-25421850,1227
-30559917,-29302425,1065
-30559917,-26307864,1223
-30559917,-28950133,949
-30559917,-25117353,1186
-30559917,-25882042,555
-30559917,-29046529,532
-30559917,-28556858,1426
-30559917,-18464856,699
-30559917,-23170931,1159
-30559917,-23378353,733
-30559917,-26419239,552
-30559917,-25346844,891
-30559917,-23433159,621
-30559917,-28673372,1282
-30559917,-28627911,769
-30559917,-12382740,450
-30559917,-28890647,449
-30559917,-119756085,344
-30559917,-26970810,932
-30559917,-29690457,913
-30559917,-15755094,599
-30559917,-25817269,1080
-30559917,-27797026,1003
-30559917,-25189523,964
-30559917,-27725748,834
-30559917,-23917344,274
-30559917,-28277850,219
-30559917,-24282202,59
-30559917,-24117813,193
-30559917,-27570276,103
-30559917,-29509030,253
-30559917,-25813425,323
-30559917,-26147450,114
-30559917,-136798187,142
-30559917,-146296329,161
-30559917,-109034294,134
-30559917,-29846359,233
-30559917,-27701671,181
-30559917,-26675756,736
-30559917,-150261522,66
-30559917,-17964514,234
-30559917,-18496184,193
-30559917,-16054118,442
-30559917,-116622031,113
-30559917,-144495454,79
-30559917,-30187757,196
-30559917,-133726577,171
-30559917,-27211409,187
-30559917,-138880351,129
-30559917,-22079806,395
-30559917,-25637804,8
-30559917,-114936390,46
-30559917,-26514504,48
-30559917,-138586391,100
-30559917,-28043011,44
-30559917,-16979732,62
-30559917,-140837657,32
-30559917,-24778001,72
-30559917,-159882,108
-30559917,-135646310,43
-30559917,-25209792,3
-30559917,-27042171,87
-30559917,-123758876,56
-30559917,-23402051,90
-30559917,-124929453,60
-30559917,-152624627,68
-30559917,-28854940,116
-30559917,-120964023,41
-30559917,-30230765,84
-30559917,-26815066,61
-30559917,-29234096,101
-30559917,-120783513,69
-30559917,-101517329,56
-30559917,-27842893,85
-30559917,-23745378,121
-30559917,-16304557,59
-30559917,-17774937,29
-30559917,-25343514,8
-30559917,-23829742,4
-30559917,-108669203,65
-30559917,-29773768,59
-30559917,-22749457,25
-30559917,-18580754,0
-30559917,-23120271,1
-30559917,-10867126,0
-30559917,-112879211,3
-30559917,-16446965,0
-30559917,-102155552,0
-30559917,-100183029,1
-30559917,-153096053,1
-30559917,-123705495,0
-30559917,-2140461,0
-30559917,-23969308,3
-30559917,-103931799,0
-30559917,-26805628,0
-30559917,-29472743,0
-30559917,-156535261,4
-30559917,-28143397,1
-30559917,-142067900,1
-30559917,-29590405,0
-30559917,-112276660,0
-30559917,-110539527,0
-30559917,-11579844,0
-30559917,-154797304,1
-30559917,-26248726,0
-30559917,-2438902,0
-30559917,-16735333,0
-30559917,-110533308,0
-30559917,-102250,0
-30559917,-107260981,0
-30559917,-127878789,0
-30559917,-141097585,0
-30559917,-26688603,0
-30559917,-135093563,0
-30559917,-138568406,0
-30559917,-120398194,0
-30559917,-109210538,0
-30559917,-103209370,0
-30559917,-107161609,1
-43772432,-26270763,1434
-43772432,-31516466,1215
-43772432,-36338110,1172
-43772432,-36184135,1519
-43772432,-29559271,1127
-43772432,-32194285,1397
-43772432,-22798006,993
-43772432,-28477986,1038
-43772432,-39009769,1621
-43772432,-43215063,916
-43772432,-38379853,1403
-43772432,-40498005,1146
-43772432,-33769500,1030
-43772432,-27895931,848
-43772432,-35486195,1427
-43772432,-26750264,806
-43772432,-30559917,1025
-43772432,-37169648,944
-43772432,-29246653,732
-43772432,-24098496,892
-43772432,-38683579,977
-43772432,-22822305,627
-43772432,-32439535,1425
-43772432,-31805219,1472
-43772432,-30022666,724
-43772432,-42541008,1254
-43772432,-40335272,873
-43772432,-34483558,917
-43772432,-25421850,1057
-43772432,-29302425,894
-43772432,-26307864,983
-43772432,-36008740,1038
-43772432,-42092461,1149
-43772432,-34118551,823
-43772432,-28950133,896
-43772432,-25117353,894
-43772432,-37448911,782
-43772432,-30953300,1091
-43772432,-40020627,1156
-43772432,-25882042,634
-43772432,-29046529,582
-43772432,-28556858,866
-43772432,-18464856,975
-43772432,-23170931,898
-43772432,-36164349,700
-43772432,-23378353,844
-43772432,-37579890,754
-43772432,-43688579,1185
-43772432,-26419239,567
-43772432,-43660281,697
-43772432,-25346844,790
-43772432,-23433159,567
-43772432,-28673372,855
-43772432,-36941068,749
-43772432,-33080201,835
-43772432,-39728801,913
-43772432,-40020304,844
-43772432,-31189947,859
-43772432,-32015300,735
-43772432,-31976785,545
-43772432,-34168005,760
-43772432,-36959676,768
-43772432,-28627911,878
-43772432,-40567146,600
-43772432,-12382740,429
-43772432,-28890647,645
-43772432,-42307767,827
-43772432,-119756085,523
-43772432,-26970810,842
-43772432,-29690457,800
-43772432,-34451036,959
-43772432,-34137285,718
-43772432,-41807730,653
-43772432,-35143550,859
-43772432,-15755094,563
